\data\
ngram 1=1423
ngram 2=5733
ngram 3=7952
ngram 4=8660
ngram 5=8958

\1-grams:
-3.7648268	<unk>	0
0	<s>	-0.0859656
-2.4941733	good	-0.21228118
-3.4602034	afternoon	-0.114175335
-3.028067	my	-0.0859656
-3.6171567	name	-0.0859656
-1.9921609	is	-0.22171468
-3.4602034	rob	-0.23045135
-1.4950438	and	-0.28682765
-3.3828623	i'll	-0.0859656
-2.786447	be	-0.12757105
-2.234971	your	-0.27240553
-3.2302094	conference	-0.13814148
-3.3828623	operator	-0.17676918
-2.9539554	today	-0.24229226
-2.2904158	at	-0.32404095
-2.2221491	this	-0.20503038
-2.7424269	time	-0.0859656
-2.0921054	i	-0.46062374
-3.028067	would	-0.108908124
-2.5184767	like	-0.23394701
-1.723456	to	-0.2107451
-3.4602034	welcome	-0.0859656
-3.4602034	everyone	-0.0859656
-1.6236497	the	-0.244305
-2.835438	callaway	-0.108908124
-2.305458	golf	-0.25964063
-3.028067	company	-0.0859656
-2.8906662	q	-0.13761994
-2.786447	earnings	-0.13242769
-3.4602034	release	-0.0859656
-3.6171567	instructions	-0.0859656
-2.5442214	thank	-0.85642654
-2.1211503	you	-0.2040804
-3.6171567	mr	-0.0859656
-3.3828623	patrick	-0.17676918
-3.6171567	burke	-0.0859656
-3.4602034	company's	-0.12899852
-3.6171567	head	-0.0859656
-1.7038677	of	-0.31345353
-3.3828623	investor	-0.28801703
-3.6171567	relations	-0.0859656
-3.4602034	may	-0.0859656
-3.4602034	begin	-0.0859656
-3.6171567	callaway's	-0.0859656
-2.6321137	first	-0.29461032
-2.8906662	quarter	-0.11890197
-2.8906662	call	-0.11954378
-2.7424269	i'm	-0.1587842
-3.4602034	joining	-0.0859656
-3.117482	me	-0.13814148
-1.9234896	on	-0.39945453
-3.3828623	today's	-0.17676918
-2.152278	are	-0.14738816
-2.835438	chip	-0.11127049
-3.6171567	brewer	-0.0859656
-1.9996653	our	-0.16731098
-3.6171567	president	-0.0859656
-3.4602034	chief	-0.0859656
-3.6171567	executive	-0.0859656
-3.3828623	officer	-0.0859656
-3.117482	brian	-0.08596558
-3.6171567	lynch	-0.0859656
-3.117482	financial	-0.1956618
-3.6171567	jennifer	-0.0859656
-3.6171567	thomas	-0.0859656
-3.3828623	accounting	-0.0859656
-3.6171567	issued	-0.0859656
-1.9921609	a	-0.2234256
-3.4602034	press	-0.23045135
-3.6171567	announcing	-0.0859656
-3.2302094	its	-0.08596558
-2.835438	results	-0.13814148
-3.6171567	copy	-0.0859656
-3.2302094	associated	-0.15222736
-3.117482	presentation	-0.0859656
-3.3828623	available	-0.0859656
-3.6171567	section	-0.0859656
-3.4602034	website	-0.0859656
-3.6171567	httpircallawaygolfcom	-0.0859656
-3.028067	most	-0.27484304
-3.2302094	numbers	-0.0859656
-3.2302094	reported	-0.08596558
-3.3828623	discussed	-0.0859656
-3.028067	based	-0.5890471
-2.7424269	us	-0.13324882
-3.3828623	generally	-0.0859656
-3.6171567	accepted	-0.0859656
-3.6171567	principles	-0.0859656
-1.5168997	in	-0.4133083
-3.3828623	few	-0.0859656
-3.6171567	instances	-0.0859656
-2.7424269	where	-0.12899852
-1.8373501	we	-0.3784115
-3.4602034	report	-0.0859656
-2.7024605	non	-0.43911403
-3.4602034	gaap	-0.12258368
-3.6171567	measures	-0.0859656
-2.449301	have	-0.16622168
-3.6171567	reconciled	-0.0859656
-3.6171567	corresponding	-0.0859656
-2.9539554	back	-0.0859656
-3.6171567	accordance	-0.0859656
-2.1211503	with	-0.32685012
-3.6171567	regulation	-0.0859656
-3.6171567	g	-0.0859656
-3.4602034	please	-0.23045135
-3.4602034	note	-0.23045135
-1.8071697	that	-0.24970734
-2.600798	will	-0.25984105
-3.4602034	include	-0.0859656
-3.3828623	forward	-0.0859656
-3.3828623	looking	-0.15222736
-3.4602034	statements	-0.0859656
-3.6171567	involve	-0.0859656
-3.6171567	risks	-0.0859656
-3.6171567	uncertainties	-0.0859656
-3.2302094	could	-0.0859656
-3.6171567	cause	-0.0859656
-3.6171567	actual	-0.0859656
-3.6171567	differ	-0.0859656
-3.6171567	materially	-0.0859656
-2.275877	from	-0.173899
-3.6171567	management's	-0.0859656
-3.3828623	current	-0.0859656
-3.117482	expectations	-0.12258368
-3.6171567	encourage	-0.0859656
-3.6171567	review	-0.0859656
-3.6171567	safe	-0.0859656
-3.6171567	harbor	-0.0859656
-3.6171567	contained	-0.0859656
-1.9363825	for	-0.35622472
-2.471158	more	-0.10857562
-3.6171567	complete	-0.0859656
-3.6171567	description	-0.0859656
-3.6171567	connection	-0.0859656
-3.4602034	prepared	-0.23045135
-3.4602034	remarks	-0.0859656
-2.3714514	there	-0.3254293
-2.600798	an	-0.23812783
-3.6171567	accompanying	-0.0859656
-3.6171567	powerpoint	-0.0859656
-3.4602034	make	-0.0859656
-2.1112514	it	-0.20564447
-3.6171567	easier	-0.0859656
-3.4602034	follow	-0.0859656
-3.6171567	download	-0.0859656
-3.2302094	under	-0.2280376
-3.6171567	webcasts	-0.0859656
-3.6171567	presentations	-0.0859656
-3.4602034	tab	-0.0859656
-2.5442214	also	-0.11390105
-3.3828623	same	-0.0859656
-2.7424269	can	-0.2798934
-3.6171567	choose	-0.0859656
-3.6171567	join	-0.0859656
-3.4602034	webcast	-0.0859656
-3.6171567	listen	-0.0859656
-3.4602034	view	-0.0859656
-3.6171567	slides	-0.0859656
-2.1112514	as	-0.3211356
-3.6171567	participant	-0.0859656
-3.3828623	able	-0.28801703
-3.6171567	flip	-0.0859656
-2.835438	through	-0.24812776
-2.4086342	now	-0.13814148
-3.4602034	turn	-0.23045135
-2.5442214	over	-0.26712328
-2.5184767	thanks	-0.15182321
-3.4602034	everybody	-0.0859656
-3.3828623	starting	-0.0859656
-3.6171567	page	-0.0859656
-3.117482	pleased	-0.2957875
-3.6171567	announce	-0.0859656
-2.7024605	strong	-0.13420516
-2.8906662	start	-0.26296973
-2.4941733	year	-0.14442128
-3.3828623	excellent	-0.0859656
-2.8906662	performance	-0.19582714
-2.786447	both	-0.14675547
-3.028067	equipment	-0.23794906
-3.028067	soft	-0.24229226
-3.6171567	goods	-0.08596558
-3.2302094	businesses	-0.12258368
-2.9539554	revenues	-0.0859656
-2.7024605	were	-0.21010755
-2.5184767	up	-0.13550952
-2.786447	overall	-0.0859656
-3.117482	driven	-0.5098658
-2.7424269	by	-0.12857287
-2.6321137	growth	-0.32678306
-2.3539894	business	-0.20329367
-2.8906662	increase	-0.2288407
-3.4602034	recent	-0.0859656
-3.2302094	acquisition	-0.114175335
-2.600798	jack	-0.6548094
-3.6171567	wolfskin	-0.0859656
-2.7024605	well	-0.0859656
-3.028067	continued	-0.11783398
-2.7424269	travismathew	-0.11954378
-3.2302094	brands	-0.15222736
-2.7424269	increased	-0.0859656
-2.471158	all	-0.15189055
-2.6658645	operating	-0.26331252
-3.2302094	segments	-0.0859656
-3.3828623	major	-0.0859656
-2.8906662	product	-0.11127049
-3.3828623	categories	-0.0859656
-3.4602034	regions	-0.0859656
-3.2302094	despite	-0.0859656
-3.028067	negative	-0.27484304
-3.2302094	fx	-0.15222736
-3.028067	headwinds	-0.0859656
-3.028067	believe	-0.18525498
-3.4602034	track	-0.0859656
-3.6171567	another	-0.0859656
-2.2904158	we're	-0.19595517
-3.4602034	eps	-0.23045135
-2.7024605	guidance	-0.20584306
-3.028067	full	-0.5890471
-3.6171567	custom	-0.0859656
-3.3828623	i'd	-0.17676918
-3.4602034	take	-0.17676918
-3.6171567	chance	-0.0859656
-3.4602034	team	-0.0859656
-3.3828623	hard	-0.0859656
-3.4602034	work	-0.0859656
-3.6171567	required	-0.0859656
-3.4602034	transforming	-0.0859656
-2.7024605	last	-0.19530702
-3.3828623	several	-0.0859656
-3.2302094	years	-0.0859656
-3.028067	sure	-0.16257592
-3.6171567	realizes	-0.0859656
-3.6171567	lot	-0.08596558
-3.028067	opportunity	-0.0859656
-3.6171567	front	-0.0859656
-3.2302094	remains	-0.0859656
-3.6171567	motivated	-0.0859656
-3.6171567	continuously	-0.0859656
-3.3828623	improve	-0.0859656
-3.6171567	let's	-0.0859656
-2.9539554	look	-0.3121865
-2.8906662	segment	-0.0859656
-3.2302094	turning	-0.23045135
-3.3828623	slide	-0.0859656
-2.786447	had	-0.303165
-2.7024605	market	-0.21642959
-3.4602034	conditions	-0.0859656
-3.6171567	varied	-0.0859656
-3.6171567	widely	-0.0859656
-3.4602034	region	-0.0859656
-2.1015728	but	-0.24545524
-3.3828623	met	-0.17676918
-3.6171567	usual	-0.0859656
-3.6171567	grew	-0.0859656
-3.6171567	faster	-0.0859656
-2.6321137	than	-0.13775028
-2.3372025	which	-0.26917893
-2.275877	was	-0.15209554
-3.117482	approximately	-0.1956618
-2.835438	flat	-0.13313055
-3.6171567	exception	-0.0859656
-3.2302094	short	-0.4129558
-2.9539554	term	-0.09984147
-3.4602034	quarterly	-0.0859656
-3.6171567	variations	-0.0859656
-3.2302094	launch	-0.0859656
-3.2302094	timing	-0.15222736
-3.4602034	positioned	-0.23045135
-2.8906662	continue	-0.4509343
-2.9539554	do	-0.102670655
-2.08284	so	-0.22275405
-3.117482	long	-0.27484304
-3.3828623	run	-0.0859656
-3.6171567	date	-0.0859656
-3.4602034	demonstrating	-0.0859656
-3.117482	strength	-0.12899852
-2.835438	across	-0.270539
-3.6171567	breadth	-0.0859656
-3.2302094	club	-0.0859656
-3.4602034	lineup	-0.0859656
-2.835438	new	-0.12857287
-3.2302094	epic	-0.2280376
-3.6171567	flash	-0.0859656
-3.117482	driver	-0.0859656
-3.4602034	apex	-0.23045135
-3.2302094	irons	-0.13814148
-3.6171567	stroke	-0.0859656
-3.6171567	lab	-0.0859656
-3.3828623	putters	-0.0859656
-3.4602034	doing	-0.0859656
-3.028067	ball	-0.16777784
-3.117482	continues	-0.5098658
-3.6171567	extremely	-0.0859656
-2.786447	currency	-0.10067166
-3.4602034	neutral	-0.0859656
-2.786447	revenue	-0.17534545
-3.6171567	reaction	-0.0859656
-3.2302094	triple	-0.4129558
-2.8906662	technology	-0.11127049
-3.2302094	erc	-0.0859656
-3.6171567	balls	-0.0859656
-2.7024605	has	-0.17832643
-3.117482	been	-0.103888825
-3.117482	shares	-0.114175335
-3.028067	set	-0.0859656
-3.6171567	records	-0.0859656
-2.7024605	brand	-0.16112867
-3.3828623	side	-0.0859656
-3.117482	we've	-0.12899852
-3.6171567	tour	-0.0859656
-3.4602034	multiple	-0.0859656
-3.6171567	wins	-0.0859656
-3.6171567	globe	-0.0859656
-2.9539554	part	-0.34178984
-3.4602034	strategic	-0.0859656
-3.6171567	initiative	-0.0859656
-3.6171567	earned	-0.0859656
-3.6171567	claim	-0.0859656
-3.028067	being	-0.0859656
-2.786447	number	-0.62597764
-2.571589	one	-0.12258368
-3.6171567	worldwide	-0.0859656
-3.6171567	tours	-0.0859656
-3.4602034	putter	-0.0859656
-3.3828623	received	-0.0859656
-2.9539554	great	-0.17581953
-3.6171567	feedback	-0.0859656
-3.6171567	according	-0.0859656
-3.6171567	datatech's	-0.0859656
-3.6171567	spring	-0.0859656
-3.6171567	attitude	-0.0859656
-3.6171567	usage	-0.0859656
-3.6171567	study	-0.0859656
-3.4602034	moved	-0.0859656
-2.6658645	into	-0.12258368
-3.6171567	either	-0.0859656
-3.6171567	top	-0.0859656
-3.3828623	spot	-0.0859656
-2.4086342	or	-0.106090195
-3.6171567	statistical	-0.0859656
-3.6171567	tie	-0.0859656
-3.6171567	every	-0.0859656
-3.2302094	consumer	-0.0859656
-3.6171567	measure	-0.0859656
-3.4602034	show	-0.0859656
-3.6171567	resilience	-0.0859656
-3.6171567	upward	-0.0859656
-3.6171567	mobility	-0.0859656
-3.2302094	clubs	-0.0859656
-3.6171567	highest	-0.0859656
-2.7024605	net	-0.575873
-3.6171567	rating	-0.0859656
-3.4602034	total	-0.0859656
-3.6171567	decade	-0.0859656
-3.6171567	leader	-0.0859656
-3.6171567	statistically	-0.0859656
-3.6171567	tied	-0.0859656
-3.117482	lead	-0.13814148
-3.6171567	innovation	-0.0859656
-2.6658645	these	-0.103888825
-3.6171567	testament	-0.0859656
-3.6171567	latent	-0.0859656
-3.6171567	team's	-0.0859656
-3.6171567	execution	-0.0859656
-3.6171567	perhaps	-0.0859656
-3.117482	even	-0.08596558
-3.4602034	importantly	-0.0859656
-2.7424269	right	-0.28348747
-3.028067	things	-0.12899852
-3.4602034	build	-0.0859656
-2.6321137	here	-0.23716302
-3.6171567	surged	-0.0859656
-2.7424269	due	-0.6673703
-3.6171567	majority	-0.0859656
-3.3828623	portfolio	-0.0859656
-3.6171567	worthy	-0.0859656
-3.6171567	special	-0.0859656
-2.7024605	out	-0.12258368
-3.6171567	deliver	-0.0859656
-3.117482	double	-0.26406765
-3.6171567	digit	-0.0859656
-3.4602034	remain	-0.17676918
-3.4602034	energized	-0.17676918
-2.600798	about	-0.16173272
-3.2302094	future	-0.0859656
-3.3828623	outlook	-0.15222736
-3.4602034	declined	-0.0859656
-3.028067	foreign	-0.35496384
-3.4602034	exchange	-0.0859656
-3.2302094	softer	-0.15222736
-2.835438	expected	-0.11127049
-3.117482	key	-0.13814148
-3.2302094	markets	-0.08596558
-3.4602034	central	-0.23045135
-3.028067	europe	-0.13735943
-3.4602034	china	-0.0859656
-3.4602034	led	-0.23045135
-2.7424269	lower	-0.103888825
-3.2302094	anticipated	-0.0859656
-2.7424269	pre	-0.40738508
-3.6171567	books	-0.0859656
-3.3828623	fall	-0.17676918
-3.3828623	winter	-0.0859656
-3.4602034	season	-0.0859656
-3.4602034	result	-0.08596558
-3.6171567	anticipating	-0.0859656
-3.028067	ebitda	-0.11783398
-3.6171567	initially	-0.0859656
-3.6171567	reflected	-0.0859656
-3.6171567	issues	-0.0859656
-3.6171567	large	-0.0859656
-3.6171567	rapidly	-0.0859656
-3.3828623	growing	-0.0859656
-3.3828623	confident	-0.0859656
-3.3828623	excited	-0.28801703
-3.117482	potential	-0.08596558
-3.6171567	reinvest	-0.0859656
-3.3828623	infrastructure	-0.0859656
-3.3828623	projects	-0.0859656
-3.6171567	underway	-0.0859656
-3.6171567	many	-0.0859656
-3.6171567	extend	-0.0859656
-3.4602034	mid	-0.0859656
-3.6171567	before	-0.0859656
-3.4602034	mentioned	-0.0859656
-3.4602034	chicopee	-0.0859656
-3.6171567	plant	-0.0859656
-2.835438	capital	-0.2396329
-3.4602034	project	-0.0859656
-3.4602034	final	-0.0859656
-3.117482	distribution	-0.0859656
-3.6171567	center	-0.0859656
-3.4602034	expansion	-0.0859656
-3.6171567	aimed	-0.0859656
-3.6171567	capacity	-0.0859656
-3.6171567	efficiency	-0.0859656
-3.6171567	systems	-0.0859656
-3.6171567	upgrades	-0.0859656
-3.6171567	convergence	-0.0859656
-2.6658645	related	-0.61063516
-3.4602034	acquisitions	-0.0859656
-3.6171567	ambitions	-0.0859656
-3.2302094	process	-0.13814148
-3.4602034	establishing	-0.0859656
-3.6171567	organizational	-0.0859656
-3.2302094	they're	-0.15222736
-2.571589	not	-0.14242756
-3.117482	currently	-0.08596558
-3.6171567	progressing	-0.0859656
-3.4602034	nicely	-0.0859656
-3.117482	we'll	-0.08596558
-3.4602034	foundation	-0.0859656
-3.4602034	thus	-0.0859656
-3.6171567	confirming	-0.0859656
-3.6171567	raising	-0.0859656
-3.3828623	slightly	-0.0859656
-3.6171567	financing	-0.0859656
-3.028067	costs	-0.17534545
-3.3828623	tax	-0.0859656
-3.3828623	projections	-0.0859656
-3.6171567	overcoming	-0.0859656
-3.3828623	significant	-0.0859656
-3.4602034	headwind	-0.0859656
-3.6171567	whether	-0.0859656
-3.2302094	less	-0.0859656
-3.6171567	desired	-0.0859656
-3.4602034	slower	-0.0859656
-2.835438	apparel	-0.20497835
-3.2302094	industry	-0.11127049
-3.3828623	healthy	-0.08596558
-3.117482	position	-0.16139454
-3.6171567	leadership	-0.0859656
-3.3828623	positions	-0.0859656
-3.3828623	getting	-0.17676918
-3.6171567	arms	-0.0859656
-3.2302094	around	-0.15222736
-3.6171567	quickly	-0.0859656
-3.117482	learning	-0.08596558
-3.6171567	increasingly	-0.0859656
-2.4086342	it's	-0.15401852
-3.4602034	successful	-0.0859656
-3.6171567	achieving	-0.0859656
-2.8906662	adjusted	-0.7139858
-3.4602034	digits	-0.0859656
-3.6171567	nearly	-0.0859656
-3.028067	two	-0.0859656
-3.4602034	times	-0.0859656
-2.600798	what	-0.12622309
-3.2302094	only	-0.0859656
-3.3828623	ago	-0.0859656
-3.3828623	type	-0.28801703
-3.117482	scale	-0.08596558
-3.6171567	targeting	-0.0859656
-3.2302094	investments	-0.15222736
-3.6171567	initiatives	-0.0859656
-3.4602034	addition	-0.0859656
-3.4602034	anticipate	-0.0859656
-3.028067	further	-0.0859656
-3.6171567	strengthening	-0.0859656
-3.6171567	trending	-0.0859656
-3.6171567	accordingly	-0.0859656
-3.6171567	reinvestments	-0.0859656
-3.6171567	oriented	-0.0859656
-3.6171567	management	-0.0859656
-3.6171567	decisions	-0.0859656
-3.6171567	setting	-0.0859656
-3.6171567	stage	-0.0859656
-3.6171567	achieved	-0.0859656
-3.4602034	record	-0.0859656
-2.7424269	sales	-0.11752281
-2.7424269	compared	-0.8522885
-3.6171567	delivered	-0.0859656
-3.2302094	expect	-0.12258368
-3.6171567	achieve	-0.0859656
-3.3828623	plan	-0.0859656
-3.6171567	reiterating	-0.0859656
-3.6171567	although	-0.0859656
-3.6171567	lowering	-0.0859656
-3.6171567	prospects	-0.0859656
-2.6658645	other	-0.17785865
-3.3828623	cover	-0.17676918
-3.6171567	effects	-0.0859656
-3.4602034	having	-0.0859656
-3.4602034	upon	-0.23045135
-3.6171567	focused	-0.0859656
-3.4602034	premium	-0.0859656
-3.6171567	active	-0.0859656
-3.2302094	lifestyle	-0.0859656
-3.4602034	presents	-0.0859656
-3.6171567	evaluating	-0.0859656
-3.028067	should	-0.16139454
-3.3828623	keep	-0.17676918
-3.4602034	mind	-0.0859656
-2.305458	some	-0.2108743
-3.6171567	specific	-0.0859656
-3.3828623	factors	-0.0859656
-3.6171567	affect	-0.0859656
-3.6171567	comparisons	-0.0859656
-3.6171567	occurred	-0.0859656
-3.6171567	january	-0.0859656
-3.3828623	included	-0.17676918
-3.2302094	second	-0.12899852
-3.6171567	recurring	-0.0859656
-3.4602034	transaction	-0.13814148
-3.6171567	transition	-0.0859656
-3.2302094	expenses	-0.14434555
-2.786447	when	-0.1255326
-3.6171567	comparing	-0.0859656
-3.6171567	exclude	-0.0859656
-3.6171567	nonrecurring	-0.0859656
-2.5184767	how	-0.27406263
-3.6171567	evaluate	-0.0859656
-3.6171567	third	-0.0859656
-3.2302094	ogio	-0.2280376
-3.6171567	incurred	-0.0859656
-3.3828623	noncash	-0.0859656
-3.028067	purchase	-0.24229226
-3.4602034	adjustments	-0.0859656
-3.6171567	discussing	-0.0859656
-3.6171567	fourth	-0.0859656
-3.4602034	following	-0.0859656
-3.6171567	reevaluated	-0.0859656
-3.3828623	reporting	-0.0859656
-3.6171567	changed	-0.0859656
-3.4602034	includes	-0.08596558
-2.9539554	gear	-0.41019565
-3.4602034	bags	-0.0859656
-3.3828623	accessories	-0.0859656
-3.4602034	footwear	-0.0859656
-3.6171567	royalties	-0.0859656
-3.6171567	licensing	-0.0859656
-3.4602034	category	-0.0859656
-2.6658645	basis	-0.17805117
-3.3828623	break	-0.28801703
-3.6171567	clothes	-0.0859656
-3.2302094	then	-0.0859656
-3.4602034	remaining	-0.0859656
-3.6171567	regional	-0.0859656
-3.3828623	japan	-0.0859656
-3.4602034	size	-0.0859656
-3.3828623	consolidated	-0.0859656
-3.3828623	rest	-0.28801703
-3.3828623	asia	-0.08596558
-3.6171567	world	-0.0859656
-3.4602034	simply	-0.0859656
-3.6171567	fifth	-0.0859656
-3.6171567	remind	-0.0859656
-3.6171567	consistency	-0.0859656
-3.6171567	comparable	-0.0859656
-3.6171567	companies	-0.0859656
-3.3828623	excludes	-0.0859656
-3.3828623	stock	-0.17676918
-3.6171567	compensation	-0.0859656
-3.028067	expense	-0.15155403
-2.571589	those	-0.12222421
-3.4602034	provide	-0.23045135
-2.3539894	million	-0.28421897
-3.117482	changes	-0.5098658
-3.3828623	rates	-0.0859656
-3.6171567	negatively	-0.0859656
-3.4602034	impacted	-0.0859656
-3.4602034	constant	-0.23045135
-3.117482	excluding	-0.1956618
-3.028067	core	-0.21938646
-3.2302094	including	-0.0859656
-2.8906662	see	-0.16678543
-2.7424269	gross	-0.55125856
-3.2302094	margin	-0.0859656
-3.2302094	better	-0.15222736
-3.117482	cash	-0.17534545
-2.8906662	point	-0.0859656
-3.2302094	impact	-0.0859656
-3.117482	margins	-0.108908124
-3.2302094	points	-0.0859656
-3.028067	decrease	-0.16139454
-3.3828623	primarily	-0.0859656
-3.4602034	attributable	-0.23045135
-3.2302094	seasonality	-0.15222736
-3.6171567	mix	-0.0859656
-2.786447	higher	-0.17875211
-3.6171567	priced	-0.0859656
-2.786447	products	-0.13814148
-3.4602034	typically	-0.0859656
-3.6171567	advanced	-0.0859656
-3.4602034	partially	-0.23045135
-3.2302094	offset	-0.15222736
-3.2302094	accretive	-0.13814148
-3.6171567	income	-0.0859656
-3.117482	period	-0.12899852
-3.6171567	predominantly	-0.0859656
-3.3828623	change	-0.17676918
-3.3828623	prior	-0.13814148
-3.4602034	price	-0.0859656
-3.3828623	hedging	-0.17676918
-3.4602034	losses	-0.0859656
-3.6171567	resulted	-0.0859656
-3.028067	interest	-0.0859656
-3.6171567	loan	-0.0859656
-3.4602034	entered	-0.23045135
-3.6171567	fund	-0.0859656
-3.6171567	gains	-0.0859656
-3.4602034	fully	-0.23045135
-3.6171567	diluted	-0.0859656
-3.6171567	per	-0.0859656
-2.786447	share	-0.103888825
-2.9539554	versus	-0.0859656
-3.2302094	particularly	-0.0859656
-3.2302094	given	-0.2280376
-3.6171567	adverse	-0.0859656
-3.4602034	certain	-0.0859656
-3.3828623	balance	-0.0859656
-3.6171567	sheet	-0.0859656
-3.6171567	flow	-0.0859656
-3.6171567	items	-0.0859656
-3.6171567	liquidity	-0.0859656
-3.6171567	represents	-0.0859656
-3.3828623	additional	-0.0859656
-3.4602034	availability	-0.0859656
-3.6171567	credit	-0.0859656
-3.6171567	facilities	-0.0859656
-3.4602034	plus	-0.0859656
-3.6171567	hand	-0.0859656
-3.6171567	end	-0.0859656
-3.6171567	principal	-0.0859656
-3.3828623	outstanding	-0.0859656
-3.4602034	b	-0.0859656
-3.2302094	facility	-0.0859656
-3.6171567	used	-0.0859656
-3.6171567	cross	-0.0859656
-3.6171567	swap	-0.0859656
-3.6171567	agreement	-0.0859656
-3.6171567	regard	-0.0859656
-3.2302094	portion	-0.3249476
-3.6171567	effectively	-0.0859656
-3.6171567	fixed	-0.0859656
-3.4602034	rate	-0.0859656
-3.4602034	accounts	-0.23045135
-3.6171567	receivable	-0.0859656
-3.6171567	days	-0.0859656
-3.4602034	consistent	-0.23045135
-3.3828623	comfortable	-0.17676918
-3.4602034	quality	-0.23045135
-3.6171567	displayed	-0.0859656
-3.028067	inventory	-0.0859656
-3.6171567	transit	-0.0859656
-3.6171567	needed	-0.0859656
-3.3828623	support	-0.0859656
-3.6171567	larger	-0.0859656
-3.6171567	expenditures	-0.0859656
-3.4602034	mainly	-0.0859656
-3.4602034	depreciation	-0.23045135
-3.6171567	amortization	-0.0859656
-3.6171567	finally	-0.0859656
-3.2302094	open	-0.08596558
-3.6171567	repurchases	-0.0859656
-3.4602034	acquired	-0.0859656
-3.6171567	settlement	-0.0859656
-3.6171567	equity	-0.0859656
-3.6171567	awards	-0.0859656
-3.6171567	repurchased	-0.0859656
-3.3828623	repurchase	-0.0859656
-3.6171567	authorization	-0.0859656
-3.4602034	comment	-0.23045135
-3.6171567	begins	-0.0859656
-3.6171567	providing	-0.0859656
-3.6171567	seen	-0.0859656
-3.2302094	range	-0.15222736
-3.4602034	billion	-0.0859656
-3.6171567	originates	-0.0859656
-3.6171567	concomitant	-0.0859656
-3.6171567	book	-0.0859656
-3.6171567	upcoming	-0.0859656
-3.4602034	fallwinter	-0.15222736
-3.6171567	wolfskin's	-0.0859656
-3.4602034	previously	-0.0859656
-3.2302094	estimates	-0.0859656
-3.4602034	assume	-0.0859656
-3.6171567	while	-0.0859656
-3.6171567	reiterate	-0.0859656
-3.4602034	previous	-0.17676918
-3.6171567	improvements	-0.0859656
-3.6171567	increasing	-0.0859656
-3.6171567	effective	-0.0859656
-3.2302094	estimated	-0.08596558
-3.6171567	figures	-0.0859656
-3.117482	estimate	-0.0859656
-3.3828623	incremental	-0.0859656
-3.6171567	da	-0.0859656
-3.6171567	exchanges	-0.0859656
-3.6171567	contribution	-0.0859656
-3.3828623	half	-0.12494809
-3.3828623	software	-0.0859656
-3.6171567	impacting	-0.0859656
-3.3828623	orders	-0.0859656
-3.4602034	little	-0.0859656
-3.6171567	refining	-0.0859656
-3.4602034	represent	-0.0859656
-3.3828623	reflects	-0.17676918
-3.6171567	shift	-0.0859656
-3.6171567	gap	-0.0859656
-3.6171567	increases	-0.0859656
-3.6171567	recorded	-0.0859656
-3.6171567	intra	-0.0859656
-3.3828623	greater	-0.0859656
-3.6171567	occur	-0.0859656
-3.4602034	loss	-0.0859656
-3.3828623	launches	-0.13814148
-3.6171567	periods	-0.0859656
-3.6171567	adversely	-0.0859656
-3.6171567	affected	-0.0859656
-3.4602034	weighted	-0.0859656
-3.6171567	heavily	-0.0859656
-3.6171567	towards	-0.0859656
-3.6171567	conversely	-0.0859656
-3.6171567	reasons	-0.0859656
-3.3828623	during	-0.17676918
-3.6171567	anticipates	-0.0859656
-3.6171567	probability	-0.0859656
-3.6171567	considered	-0.0859656
-3.6171567	benefits	-0.0859656
-3.6171567	provides	-0.0859656
-3.3828623	opportunities	-0.0859656
-3.6171567	shareholder	-0.0859656
-3.6171567	value	-0.0859656
-3.6171567	creation	-0.0859656
-3.4602034	concludes	-0.0859656
-3.028067	questions	-0.0859656
-2.835438	question	-0.108908124
-3.4602034	comes	-0.0859656
-3.2302094	line	-0.0859656
-3.3828623	steven	-0.0859656
-3.6171567	zaccone	-0.0859656
-3.6171567	jp	-0.0859656
-3.6171567	morgan	-0.0859656
-2.6321137	very	-0.15189055
-3.2302094	much	-0.0859656
-2.4086342	just	-0.18564884
-3.3828623	don't	-0.0859656
-3.6171567	details	-0.0859656
-3.3828623	woods	-0.0859656
-3.028067	within	-0.24229226
-3.3828623	saw	-0.0859656
-3.3828623	maybe	-0.0859656
-3.4602034	broader	-0.0859656
-3.4602034	competitive	-0.0859656
-3.6171567	backdrop	-0.0859656
-3.4602034	far	-0.0859656
-3.2302094	correct	-0.0859656
-3.117482	obviously	-0.11783398
-2.6658645	if	-0.3420413
-3.6171567	marketplace	-0.0859656
-3.4602034	showing	-0.0859656
-2.6658645	really	-0.0859656
-3.4602034	we'd	-0.23045135
-3.4602034	throughout	-0.23045135
-3.6171567	entire	-0.0859656
-2.600798	okay	-0.32620868
-3.6171567	elaborate	-0.0859656
-3.3828623	bit	-0.11783398
-2.6658645	you're	-0.1560379
-3.4602034	seeing	-0.0859656
-2.6658645	that's	-0.21850082
-3.6171567	resulting	-0.0859656
-3.6171567	cut	-0.0859656
-3.4602034	weakness	-0.0859656
-3.2302094	bookings	-0.12258368
-3.6171567	equally	-0.0859656
-3.6171567	spread	-0.0859656
-3.3828623	between	-0.0859656
-3.6171567	toward	-0.0859656
-3.6171567	along	-0.0859656
-3.6171567	lines	-0.0859656
-2.8906662	still	-0.11127049
-2.786447	pretty	-0.0859656
-3.2302094	early	-0.15222736
-3.3828623	gives	-0.17676918
-3.3828623	confidence	-0.0859656
-3.4602034	achievable	-0.0859656
-3.4602034	level	-0.0859656
-3.6171567	let	-0.0859656
-3.3828623	answer	-0.17676918
-3.6171567	operates	-0.0859656
-3.6171567	differently	-0.0859656
-3.4602034	traditional	-0.0859656
-3.6171567	works	-0.0859656
-3.4602034	longer	-0.0859656
-3.6171567	shipments	-0.0859656
-3.3828623	came	-0.17676918
-3.4602034	basically	-0.0859656
-3.3828623	visibility	-0.0859656
-3.2302094	couple	-0.4129558
-3.4602034	different	-0.0859656
-3.4602034	general	-0.0859656
-3.6171567	slowing	-0.0859656
-3.6171567	economies	-0.0859656
-3.117482	think	-0.1319661
-3.6171567	documented	-0.0859656
-3.6171567	secondly	-0.0859656
-2.9539554	probably	-0.0859656
-3.6171567	cute	-0.0859656
-3.3828623	issue	-0.0859656
-3.117482	weather	-0.0859656
-3.4602034	didn't	-0.0859656
-3.6171567	cooperate	-0.0859656
-3.3828623	their	-0.0859656
-3.3828623	largest	-0.0859656
-2.6321137	they	-0.20828965
-3.3828623	warm	-0.0859656
-3.6171567	followed	-0.0859656
-3.6171567	summer	-0.0859656
-3.6171567	dry	-0.0859656
-3.3828623	them	-0.17676918
-3.6171567	backed	-0.0859656
-3.3828623	channel	-0.0859656
-3.6171567	hearing	-0.0859656
-3.6171567	wide	-0.0859656
-3.3828623	wholesale	-0.13814148
-3.4602034	putting	-0.0859656
-3.3828623	improved	-0.0859656
-3.4602034	relative	-0.23045135
-3.117482	did	-0.13814148
-3.2302094	any	-0.0859656
-2.6658645	yes	-0.101607546
-3.4602034	helpful	-0.0859656
-2.9539554	next	-0.2396329
-3.117482	dave	-0.08596558
-3.6171567	king	-0.0859656
-3.6171567	roth	-0.0859656
-3.117482	guys	-0.11589323
-3.6171567	guess	-0.0859656
-2.6658645	down	-0.13469027
-3.3828623	fair	-0.17676918
-3.6171567	involves	-0.0859656
-3.6171567	puts	-0.0859656
-3.4602034	takes	-0.0859656
-3.6171567	dilutive	-0.0859656
-3.6171567	sort	-0.0859656
-3.6171567	recovery	-0.0859656
-3.2302094	expecting	-0.08596558
-3.6171567	beyond	-0.0859656
-3.6171567	relatively	-0.0859656
-3.6171567	past	-0.0859656
-2.6321137	going	-0.4975617
-3.4602034	transformation	-0.23045135
-3.4602034	improvement	-0.0859656
-3.6171567	optimistic	-0.0859656
-3.117482	momentum	-0.1956618
-3.2302094	profitability	-0.0859656
-3.6171567	strictly	-0.0859656
-3.4602034	always	-0.0859656
-3.6171567	particular	-0.0859656
-3.3828623	cycle	-0.0859656
-3.6171567	launching	-0.0859656
-3.2302094	average	-0.15222736
-3.3828623	selling	-0.0859656
-3.4602034	prices	-0.0859656
-3.6171567	percentages	-0.0859656
-3.6171567	outcome	-0.0859656
-3.6171567	color	-0.0859656
-3.6171567	contribute	-0.0859656
-3.6171567	breakeven	-0.0859656
-3.028067	no	-0.0859656
-3.6171567	sorry	-0.0859656
-2.7424269	got	-0.43940377
-3.3828623	actually	-0.0859656
-3.3828623	profitable	-0.0859656
-3.117482	perspective	-0.08596558
-3.4602034	close	-0.23045135
-3.6171567	quick	-0.0859656
-3.6171567	terms	-0.0859656
-3.4602034	done	-0.0859656
-3.6171567	contributed	-0.0859656
-3.6171567	booked	-0.0859656
-3.6171567	pro	-0.0859656
-3.6171567	forma	-0.0859656
-3.6171567	midpoint	-0.0859656
-3.4602034	booking	-0.0859656
-2.786447	kind	-0.8108958
-3.4602034	high	-0.0859656
-3.6171567	single	-0.0859656
-3.4602034	way	-0.0859656
-3.4602034	thinking	-0.23045135
-3.4602034	year's	-0.0859656
-3.4602034	euro	-0.0859656
-3.6171567	translated	-0.0859656
-3.6171567	ish	-0.0859656
-3.6171567	relevant	-0.0859656
-3.6171567	adjust	-0.0859656
-3.6171567	context	-0.0859656
-3.6171567	alarming	-0.0859656
-3.6171567	understood	-0.0859656
-3.6171567	sounds	-0.0859656
-3.6171567	relates	-0.0859656
-3.4602034	factored	-0.0859656
-3.6171567	enough	-0.0859656
-3.6171567	thought	-0.0859656
-3.6171567	try	-0.0859656
-3.6171567	problem	-0.0859656
-3.3828623	brett	-0.0859656
-3.6171567	andress	-0.0859656
-3.6171567	keybanc	-0.0859656
-3.2302094	hi	-0.15222736
-3.117482	building	-0.13814148
-3.117482	off	-0.08596558
-3.3828623	understand	-0.17676918
-3.6171567	historically	-0.0859656
-3.4602034	eventually	-0.0859656
-3.117482	get	-0.0859656
-3.6171567	usually	-0.0859656
-3.6171567	once	-0.0859656
-3.3828623	direct	-0.28801703
-3.6171567	e	-0.0859656
-3.6171567	com	-0.0859656
-3.4602034	own	-0.0859656
-3.6171567	retail	-0.0859656
-3.6171567	indicator	-0.0859656
-3.4602034	forecast	-0.0859656
-3.4602034	clarification	-0.0859656
-3.4602034	internationally	-0.0859656
-3.4602034	played	-0.0859656
-3.6171567	least	-0.0859656
-3.4602034	datatech	-0.0859656
-3.4602034	data	-0.0859656
-3.6171567	recouping	-0.0859656
-3.6171567	global	-0.0859656
-3.4602034	north	-0.23045135
-3.6171567	america	-0.0859656
-3.4602034	wasn't	-0.23045135
-3.6171567	cooperative	-0.0859656
-3.2302094	quite	-0.15222736
-3.3828623	said	-0.13814148
-3.3828623	candidly	-0.13814148
-3.6171567	fine	-0.0859656
-3.6171567	tough	-0.0859656
-3.6171567	comp	-0.0859656
-3.4602034	channels	-0.0859656
-3.6171567	drivers	-0.0859656
-3.6171567	fairway	-0.0859656
-3.6171567	wood	-0.0859656
-3.6171567	hybrids	-0.0859656
-3.6171567	model	-0.0859656
-3.4602034	together	-0.0859656
-3.6171567	too	-0.0859656
-3.6171567	disappointed	-0.0859656
-3.6171567	evident	-0.0859656
-3.6171567	pour	-0.0859656
-3.6171567	performing	-0.0859656
-3.6171567	strongly	-0.0859656
-3.6171567	after	-0.0859656
-3.6171567	housekeeping	-0.0859656
-3.6171567	assuming	-0.0859656
-3.4602034	does	-0.0859656
-3.4602034	trying	-0.23045135
-3.4602034	reclassification	-0.0859656
-3.6171567	tents	-0.0859656
-3.6171567	whole	-0.0859656
-3.6171567	host	-0.0859656
-3.6171567	travis	-0.0859656
-3.6171567	referred	-0.0859656
-3.6171567	his	-0.0859656
-3.6171567	comments	-0.0859656
-3.6171567	awesome	-0.0859656
-3.6171567	michael	-0.0859656
-3.6171567	swartz	-0.0859656
-3.6171567	suntrust	-0.0859656
-3.6171567	robinson	-0.0859656
-3.6171567	humphrey	-0.0859656
-3.4602034	hey	-0.0859656
-3.6171567	evening	-0.0859656
-3.2302094	wanted	-0.3249476
-3.6171567	understanding	-0.0859656
-3.4602034	taking	-0.0859656
-3.6171567	laid	-0.0859656
-3.4602034	medium	-0.23045135
-3.6171567	goals	-0.0859656
-3.6171567	confirm	-0.0859656
-3.4602034	targets	-0.0859656
-3.6171567	aiming	-0.0859656
-3.6171567	mike	-0.0859656
-3.6171567	piggybacking	-0.0859656
-3.6171567	brett's	-0.0859656
-3.6171567	looks	-0.0859656
-3.6171567	organic	-0.0859656
-3.6171567	mean	-0.0859656
-3.6171567	unit	-0.0859656
-3.4602034	volume	-0.0859656
-3.6171567	pricing	-0.0859656
-3.6171567	wrong	-0.0859656
-3.6171567	articulated	-0.0859656
-3.6171567	stronger	-0.0859656
-3.6171567	difficult	-0.0859656
-3.3828623	give	-0.28801703
-3.4602034	can't	-0.0859656
-3.2302094	others	-0.0859656
-3.6171567	supports	-0.0859656
-3.6171567	saying	-0.0859656
-3.6171567	parse	-0.0859656
-3.6171567	almost	-0.0859656
-3.6171567	worse	-0.0859656
-3.4602034	months	-0.0859656
-3.6171567	gave	-0.0859656
-3.6171567	wonderful	-0.0859656
-3.4602034	daniel	-0.0859656
-3.6171567	imbro	-0.0859656
-3.6171567	stephens	-0.0859656
-3.6171567	synergy	-0.0859656
-3.4602034	talked	-0.23045135
-3.6171567	noted	-0.0859656
-3.6171567	identified	-0.0859656
-3.117482	synergies	-0.12899852
-3.6171567	existing	-0.0859656
-3.6171567	asset	-0.0859656
-3.6171567	detail	-0.0859656
-3.6171567	updated	-0.0859656
-3.6171567	nature	-0.0859656
-3.2302094	come	-0.0859656
-3.4602034	three	-0.0859656
-3.3828623	areas	-0.0859656
-3.4602034	talking	-0.0859656
-3.6171567	cost	-0.0859656
-3.6171567	base	-0.0859656
-3.4602034	clearly	-0.0859656
-3.6171567	help	-0.0859656
-3.6171567	grow	-0.0859656
-3.6171567	supply	-0.0859656
-3.6171567	chain	-0.0859656
-3.6171567	logistics	-0.0859656
-3.6171567	centers	-0.0859656
-3.6171567	diving	-0.0859656
-3.6171567	literally	-0.0859656
-3.6171567	drinking	-0.0859656
-3.6171567	fire	-0.0859656
-3.6171567	hose	-0.0859656
-3.6171567	information	-0.0859656
-3.6171567	become	-0.0859656
-3.6171567	found	-0.0859656
-3.6171567	none	-0.0859656
-3.6171567	won't	-0.0859656
-3.6171567	materialize	-0.0859656
-3.6171567	till	-0.0859656
-3.6171567	late	-0.0859656
-3.6171567	scaling	-0.0859656
-3.4602034	fact	-0.0859656
-3.4602034	investing	-0.0859656
-3.4602034	investment	-0.0859656
-3.6171567	practice	-0.0859656
-3.6171567	appears	-0.0859656
-3.4602034	paying	-0.0859656
-3.6171567	shareholders	-0.0859656
-3.4602034	such	-0.0859656
-3.6171567	definitely	-0.0859656
-3.6171567	adjusting	-0.0859656
-3.6171567	heavier	-0.0859656
-3.3828623	pressure	-0.0859656
-3.3828623	know	-0.08596558
-3.6171567	shed	-0.0859656
-3.6171567	light	-0.0859656
-3.6171567	buckets	-0.0859656
-3.6171567	guided	-0.0859656
-3.6171567	target	-0.0859656
-2.9539554	there's	-0.18848038
-3.6171567	timers	-0.0859656
-3.6171567	step	-0.0859656
-3.6171567	cyclicality	-0.0859656
-3.4602034	earlier	-0.0859656
-3.3828623	percent	-0.0859656
-3.4602034	remember	-0.0859656
-3.3828623	because	-0.17676918
-3.6171567	shouldn't	-0.0859656
-3.6171567	called	-0.0859656
-3.6171567	commenting	-0.0859656
-3.4602034	best	-0.23045135
-3.4602034	luck	-0.0859656
-3.6171567	john	-0.0859656
-3.6171567	kernan	-0.0859656
-3.6171567	cowen	-0.0859656
-3.3828623	talk	-0.0859656
-3.4602034	again	-0.0859656
-3.4602034	inflection	-0.0859656
-3.6171567	obvious	-0.0859656
-3.6171567	doesn't	-0.0859656
-3.4602034	apply	-0.0859656
-3.4602034	big	-0.0859656
-3.6171567	walking	-0.0859656
-3.6171567	concerned	-0.0859656
-3.3828623	coming	-0.0859656
-3.4602034	anything	-0.0859656
-3.4602034	else	-0.0859656
-3.6171567	experienced	-0.0859656
-3.6171567	helping	-0.0859656
-3.6171567	brian's	-0.0859656
-3.6171567	mostly	-0.0859656
-3.6171567	mixed	-0.0859656
-3.6171567	chunk	-0.0859656
-3.6171567	state	-0.0859656
-3.3828623	go	-0.0859656
-3.3828623	indiscernible	-0.0859656
-3.6171567	gain	-0.0859656
-3.3828623	you've	-0.0859656
-3.6171567	invested	-0.0859656
-3.6171567	manufacturing	-0.0859656
-3.6171567	wondering	-0.0859656
-3.6171567	lying	-0.0859656
-3.4602034	near	-0.0859656
-3.6171567	curve	-0.0859656
-3.6171567	frankly	-0.0859656
-3.3828623	making	-0.0859656
-3.6171567	efficiencies	-0.0859656
-3.6171567	penalty	-0.0859656
-3.6171567	upside	-0.0859656
-3.6171567	finish	-0.0859656
-3.6171567	curves	-0.0859656
-3.6171567	ability	-0.0859656
-3.4602034	move	-0.0859656
-3.6171567	road	-0.0859656
-3.4602034	it'll	-0.0859656
-3.6171567	thematic	-0.0859656
-3.6171567	sport	-0.0859656
-3.6171567	feels	-0.0859656
-3.4602034	tiger	-0.0859656
-3.6171567	winning	-0.0859656
-3.6171567	masters	-0.0859656
-3.6171567	deal	-0.0859656
-3.4602034	young	-0.23045135
-3.6171567	players	-0.0859656
-3.6171567	excitement	-0.0859656
-3.6171567	pga	-0.0859656
-3.6171567	york	-0.0859656
-3.4602034	improving	-0.0859656
-3.6171567	metrics	-0.0859656
-3.6171567	clear	-0.0859656
-3.6171567	rounds	-0.0859656
-3.6171567	never	-0.0859656
-3.6171567	game	-0.0859656
-3.6171567	national	-0.0859656
-3.6171567	participation	-0.0859656
-3.6171567	noncore	-0.0859656
-3.6171567	topgolf	-0.0859656
-3.4602034	congrats	-0.23045135
-3.3828623	susan	-0.0859656
-3.6171567	anderson	-0.0859656
-3.6171567	riley	-0.0859656
-3.6171567	fbr	-0.0859656
-3.6171567	knowledge	-0.0859656
-3.4602034	curious	-0.15222736
-3.6171567	managing	-0.0859656
-3.6171567	anticipation	-0.0859656
-3.6171567	self	-0.0859656
-3.4602034	ahead	-0.0859656
-3.6171567	dtc	-0.0859656
-3.6171567	similar	-0.0859656
-3.6171567	amount	-0.0859656
-3.6171567	lighter	-0.0859656
-3.6171567	premature	-0.0859656
-3.4602034	wouldn't	-0.0859656
-3.6171567	happened	-0.0859656
-3.6171567	choice	-0.0859656
-3.6171567	devices	-0.0859656
-3.6171567	et	-0.0859656
-3.6171567	cetera	-0.0859656
-3.6171567	absolutely	-0.0859656
-3.6171567	phenomenon	-0.0859656
-3.4602034	nice	-0.0859656
-3.6171567	health	-0.0859656
-3.6171567	geographies	-0.0859656
-3.6171567	feeling	-0.0859656
-3.6171567	macro	-0.0859656
-3.3828623	specifically	-0.0859656
-3.6171567	trend	-0.0859656
-3.4602034	though	-0.0859656
-3.6171567	perform	-0.0859656
-3.4602034	means	-0.0859656
-3.6171567	challenged	-0.0859656
-3.6171567	naturally	-0.0859656
-3.6171567	hedged	-0.0859656
-3.6171567	positive	-0.0859656
-3.6171567	slow	-0.0859656
-3.6171567	roughly	-0.0859656
-3.6171567	since	-0.0859656
-3.3828623	outside	-0.28801703
-3.6171567	trends	-0.0859656
-3.2302094	randy	-0.0859656
-3.6171567	konik	-0.0859656
-3.6171567	jefferies	-0.0859656
-3.6171567	success	-0.0859656
-3.4602034	seems	-0.0859656
-3.4602034	wider	-0.0859656
-3.6171567	gets	-0.0859656
-3.6171567	demand	-0.0859656
-3.3828623	consumers	-0.0859656
-3.4602034	want	-0.23045135
-3.6171567	buy	-0.0859656
-3.6171567	learnings	-0.0859656
-3.4602034	stores	-0.23045135
-3.6171567	opened	-0.0859656
-3.6171567	alternative	-0.0859656
-3.6171567	international	-0.0859656
-3.3828623	development	-0.0859656
-3.6171567	accelerate	-0.0859656
-3.6171567	thoughts	-0.0859656
-3.6171567	what's	-0.0859656
-3.2302094	resonating	-0.15222736
-3.6171567	dna	-0.0859656
-3.6171567	customers	-0.0859656
-3.6171567	worn	-0.0859656
-3.6171567	courts	-0.0859656
-3.6171567	find	-0.0859656
-3.4602034	attractive	-0.0859656
-3.3828623	element	-0.0859656
-3.6171567	reach	-0.0859656
-3.6171567	measured	-0.0859656
-3.6171567	control	-0.0859656
-3.6171567	middle	-0.0859656
-3.4602034	efforts	-0.0859656
-3.6171567	small	-0.0859656
-3.4602034	added	-0.0859656
-3.3828623	plans	-0.0859656
-3.6171567	expand	-0.0859656
-3.6171567	lining	-0.0859656
-3.6171567	independently	-0.0859656
-3.6171567	area	-0.0859656
-3.4602034	leverage	-0.0859656
-3.2302094	digital	-0.0859656
-3.4602034	community	-0.0859656
-3.6171567	communities	-0.0859656
-3.6171567	ship	-0.0859656
-3.6171567	live	-0.0859656
-3.6171567	life	-0.0859656
-3.4602034	keeping	-0.0859656
-3.4602034	separately	-0.0859656
-3.6171567	bringing	-0.0859656
-3.4602034	expertise	-0.0859656
-3.2302094	marketing	-0.0859656
-3.6171567	lost	-0.0859656
-3.6171567	sometime	-0.0859656
-3.6171567	dialing	-0.0859656
-3.6171567	specifics	-0.0859656
-3.6171567	ballpark	-0.0859656
-3.6171567	organization	-0.0859656
-3.6171567	parallel	-0.0859656
-3.6171567	office	-0.0859656
-3.6171567	sharing	-0.0859656
-3.4602034	resources	-0.0859656
-3.6171567	co	-0.0859656
-3.6171567	operate	-0.0859656
-3.6171567	operated	-0.0859656
-3.6171567	invisible	-0.0859656
-3.4602034	certainly	-0.0859656
-3.6171567	case	-0.0859656
-3.4602034	place	-0.0859656
-3.6171567	campaign	-0.0859656
-3.4602034	use	-0.0859656
-3.4602034	ai	-0.0859656
-3.6171567	algorithm	-0.0859656
-3.6171567	forth	-0.0859656
-3.6171567	customer	-0.0859656
-3.6171567	respond	-0.0859656
-3.6171567	messaging	-0.0859656
-3.4602034	using	-0.23045135
-3.6171567	cycles	-0.0859656
-3.6171567	flesh	-0.0859656
-3.6171567	taught	-0.0859656
-3.6171567	utilization	-0.0859656
-3.6171567	resonated	-0.0859656
-3.6171567	reason	-0.0859656
-3.6171567	speed	-0.0859656
-3.6171567	delivers	-0.0859656
-3.6171567	anybody	-0.0859656
-3.6171567	design	-0.0859656
-3.4602034	space	-0.0859656
-3.6171567	approach	-0.0859656
-3.6171567	soon	-0.0859656
-3.6171567	learn	-0.0859656
-3.6171567	face	-0.0859656
-3.6171567	advantage	-0.0859656
-3.6171567	something	-0.0859656
-3.6171567	technologies	-0.0859656
-3.6171567	broad	-0.0859656
-3.4602034	alex	-0.0859656
-3.6171567	maroccia	-0.0859656
-3.6171567	berenberg	-0.0859656
-3.6171567	regards	-0.0859656
-3.4602034	retailers	-0.0859656
-3.6171567	sold	-0.0859656
-3.6171567	poster	-0.0859656
-3.6171567	familiar	-0.0859656
-3.6171567	leaned	-0.0859656
-3.6171567	expanded	-0.0859656
-3.6171567	hit	-0.0859656
-3.6171567	radar	-0.0859656
-3.6171567	screen	-0.0859656
-3.6171567	yet	-0.0859656
-3.4602034	appreciate	-0.0859656
-3.6171567	must	-0.0859656
-3.6171567	lean	-0.0859656
-3.6171567	they've	-0.0859656
-3.4602034	presence	-0.0859656
-3.6171567	employee	-0.0859656
-3.6171567	independent	-0.0859656
-3.6171567	agents	-0.0859656
-3.6171567	surprise	-0.0859656
-3.6171567	peak	-0.0859656
-3.6171567	hour	-0.0859656
-3.6171567	partnership	-0.0859656
-3.6171567	energy	-0.0859656
-3.6171567	glad	-0.0859656
-3.6171567	hear	-0.0859656
-3.6171567	somewhere	-0.0859656
-3.6171567	jumping	-0.0859656
-3.4602034	board	-0.0859656
-3.6171567	switching	-0.0859656
-3.6171567	alluded	-0.0859656
-3.6171567	poor	-0.0859656
-3.6171567	sungolf	-0.0859656
-3.6171567	exactly	-0.0859656
-3.6171567	involved	-0.0859656
-3.6171567	released	-0.0859656
-3.4602034	chrome	-0.23045135
-3.6171567	exceeded	-0.0859656
-3.6171567	biggest	-0.0859656
-3.6171567	delighted	-0.0859656
-3.3828623	casey	-0.0859656
-3.6171567	alexander	-0.0859656
-3.6171567	compass	-0.0859656
-3.6171567	asked	-0.0859656
-3.6171567	answered	-0.0859656
-3.6171567	ask	-0.0859656
-3.6171567	technological	-0.0859656
-3.6171567	artificial	-0.0859656
-3.6171567	intelligence	-0.0859656
-3.6171567	competitor	-0.0859656
-3.6171567	afford	-0.0859656
-3.6171567	access	-0.0859656
-3.6171567	types	-0.0859656
-3.6171567	possible	-0.0859656
-3.6171567	harder	-0.0859656
-3.6171567	supercomputer	-0.0859656
-3.6171567	itself	-0.0859656
-3.6171567	expensive	-0.0859656
-3.6171567	it'd	-0.0859656
-3.6171567	working	-0.0859656
-3.6171567	garage	-0.0859656
-3.6171567	facing	-0.0859656
-3.6171567	anymore	-0.0859656
-3.6171567	engineering	-0.0859656
-3.6171567	staff	-0.0859656
-3.6171567	integration	-0.0859656
-3.6171567	designing	-0.0859656
-3.6171567	integrates	-0.0859656
-3.6171567	packages	-0.0859656
-3.6171567	create	-0.0859656
-3.6171567	ourselves	-0.0859656
-3.6171567	finite	-0.0859656
-3.6171567	analysis	-0.0859656
-3.6171567	predictive	-0.0859656
-3.6171567	creating	-0.0859656
-3.6171567	algorithms	-0.0859656
-3.6171567	example	-0.0859656
-3.6171567	item	-0.0859656
-3.6171567	consolidation	-0.0859656
-3.6171567	helps	-0.0859656
-3.4602034	generating	-0.0859656
-3.3828623	debt	-0.17676918
-3.6171567	repayment	-0.0859656
-3.6171567	pay	-0.0859656
-3.6171567	hope	-0.0859656
-3.4602034	free	-0.23045135
-3.6171567	finding	-0.0859656
-3.6171567	uses	-0.0859656
-3.6171567	historical	-0.0859656
-3.6171567	quarter's	-0.0859656
-3.6171567	restated	-0.0859656
-3.6171567	send	-0.0859656
-3.6171567	alright	-0.0859656
-3.6171567	closing	-0.0859656
-3.6171567	calling	-0.0859656
-3.6171567	went	-0.0859656
-3.6171567	patience	-0.0859656
-3.6171567	queue	-0.0859656
-3.6171567	attention	-0.0859656
-3.6171567	disconnect	0

\2-grams:
-0.73942083	<s> good	-0.035522204
-2.4230871	is good	-0.035522204
-2.6275916	and good	-0.035522204
-1.2076468	patrick good	-0.035522204
-2.6138008	of good	-0.035522204
-1.8400198	a good	-0.035522204
-2.2213643	have good	-0.035522204
-2.2983246	with good	-0.035522204
-2.371513	as good	-0.035522204
-1.9492867	thanks good	-0.035522204
-1.6863906	open good	-0.035522204
-1.201639	very good	-0.035522204
-1.6007181	much good	-0.035522204
-1.8307587	that's good	-0.035522204
-1.7222717	pretty good	-0.035522204
-1.2933025	guys good	-0.11876795
-1.7923508	got good	-0.035522204
-0.6816417	hi good	-0.11876795
-0.73942083	finding good	-0.035522204
-0.694162	good afternoon	-0.061537318
-2.035104	thanks afternoon	-0.035522204
-1.6845665	afternoon my	-0.035522204
-2.0432227	is my	-0.035522204
-2.8756564	of my	-0.035522204
-1.868565	into my	-0.035522204
-1.0430597	taking my	-0.035522204
-0.74387765	hit my	-0.035522204
-1.6450078	my name	-0.035522204
-0.72598755	name is	-0.035522204
-2.098948	is is	-0.035522204
-1.0891323	this is	-0.035522178
-2.1406817	to is	-0.035522204
-2.234815	of is	-0.035522204
-1.4684141	presentation is	-0.035522204
-1.4306433	that is	-0.035522204
-0.98721373	there is	-0.035522204
-1.0743725	it is	-0.06926564
-2.1202326	as is	-0.035522204
-1.4576833	now is	-0.035522204
-1.9807929	year is	-0.035522204
-1.2854334	business is	-0.035522178
-1.1270301	increase is	-0.035522204
-1.7915163	wolfskin is	-0.035522204
-1.7231401	well is	-0.035522204
-1.7054391	travismathew is	-0.035522204
-1.8689598	guidance is	-0.035522204
-1.5114276	segment is	-0.035522204
-1.8058256	market is	-0.035522204
-0.6606268	which is	-0.05668987
-1.9679708	was is	-0.035522204
-0.8391669	strength is	-0.035522204
-1.1661217	flash is	-0.035522204
-1.7295728	currency is	-0.035522204
-1.1661217	neutral is	-0.035522204
-1.5877223	technology is	-0.035522204
-1.3836292	brand is	-0.035522204
-1.1661217	received is	-0.035522204
-1.3880986	or is	-0.035522204
-1.4169806	consumer is	-0.035522204
-0.72598755	decade is	-0.035522204
-1.7275782	here is	-0.035522204
-1.7215544	ebitda is	-0.035522204
-1.1661217	chicopee is	-0.035522204
-1.044628	industry is	-0.11876795
-1.7678729	what is	-0.035522204
-1.8167082	sales is	-0.035522204
-1.8030035	other is	-0.035522204
-1.5645285	expenses is	-0.035522204
-1.6546665	expense is	-0.035522204
-1.7895188	those is	-0.035522204
-2.0735242	million is	-0.035522204
-1.6542791	margin is	-0.035522204
-1.4260135	period is	-0.035522204
-1.6810344	share is	-0.035522204
-1.2736847	line is	-0.035522204
-1.1661217	woods is	-0.035522204
-1.2736847	general is	-0.035522204
-1.8561198	think is	-0.035522204
-0.72598755	hearing is	-0.035522204
-1.363265	wholesale is	-0.035522204
-1.2736847	america is	-0.035522204
-1.0081303	does is	-0.035522204
-1.0081303	trend is	-0.035522204
-1.0081303	resources is	-0.035522204
-1.1661217	ai is	-0.035522204
-0.72598755	involved is	-0.035522204
-0.72598755	itself is	-0.035522204
-2.6862624	is rob	-0.035522204
-2.6327605	you rob	-0.035522204
-0.36594313	rob and	-0.035522204
-1.6224532	this and	-0.035522204
-1.5825808	like and	-0.035522204
-1.3849225	callaway and	-0.035522204
-1.3079567	golf and	-0.035522204
-1.3125641	company and	-0.035522204
-0.9198887	q and	-0.035522178
-1.3989732	earnings and	-0.035522204
-1.1479014	release and	-0.035522204
-0.9354171	instructions and	-0.035522204
-1.6554966	you and	-0.035522204
-1.7086511	of and	-0.035522204
-1.2933611	quarter and	-0.035522204
-1.4405556	call and	-0.035522204
-1.3694232	chip and	-0.035522204
-0.6865016	president and	-0.035522204
-1.0649828	officer and	-0.035522204
-1.1069411	results and	-0.035522204
-1.2848628	presentation and	-0.035522204
-1.2065006	reported and	-0.035522204
-0.92836225	us and	-0.035522204
-1.8834096	in and	-0.035522204
-1.411937	where and	-0.035522204
-1.6234491	that and	-0.035522204
-1.3125641	forward and	-0.035522204
-0.6865016	risks and	-0.035522204
-1.3029929	expectations and	-0.035522204
-1.1349308	there and	-0.035522204
-1.3904289	it and	-0.035522204
-1.2948021	now and	-0.035522204
-0.9354171	everybody and	-0.035522204
-1.314686	year and	-0.035522204
-1.0649828	excellent and	-0.035522204
-1.4361858	both and	-0.035522204
-1.0298396	equipment and	-0.11876795
-1.3569052	soft and	-0.035522204
-1.3029929	businesses and	-0.035522204
-1.4953383	up and	-0.035522204
-0.7642466	growth and	-0.035522178
-0.9789963	business and	-0.05668987
-0.9351855	acquisition and	-0.035522204
-1.434089	well and	-0.035522204
-0.9163273	travismathew and	-0.11876795
-1.522467	all and	-0.035522204
-1.2848628	segments and	-0.035522204
-1.3694232	product and	-0.035522204
-1.1479014	categories and	-0.035522204
-1.0649828	track and	-0.035522204
-1.5671066	guidance and	-0.035522204
-1.2504785	years and	-0.035522204
-1.2504785	opportunity and	-0.035522204
-1.2022035	market and	-0.035522204
-0.9354171	region and	-0.035522204
-1.0069698	flat and	-0.035522204
-0.6865016	variations and	-0.035522204
-1.6494297	so and	-0.035522204
-1.2700526	strength and	-0.035522204
-1.0649828	flash and	-0.035522204
-1.2848628	driver and	-0.035522204
-0.72589254	irons and	-0.035522204
-1.0649828	putters and	-0.035522204
-1.4445229	currency and	-0.035522204
-0.8460072	revenue and	-0.20891841
-0.9701704	technology and	-0.035522204
-1.1479014	balls and	-0.035522204
-1.2504785	set and	-0.035522204
-0.9053999	brand and	-0.035522204
-0.6865016	globe and	-0.035522204
-0.6865016	tours and	-0.035522204
-0.73770475	great and	-0.08353304
-0.6865016	attitude and	-0.035522204
-1.4916493	or and	-0.035522204
-1.2504785	consumer and	-0.035522204
-0.6865016	measure and	-0.035522204
-0.6865016	resilience and	-0.035522204
-1.1479014	clubs and	-0.035522204
-0.9354171	rating and	-0.035522204
-0.6865016	innovation and	-0.035522204
-1.0649828	portfolio and	-0.035522204
-1.5250763	about and	-0.035522204
-1.1711842	outlook and	-0.035522204
-1.3694232	expected and	-0.035522204
-1.2065006	markets and	-0.035522204
-0.77275515	europe and	-0.11876795
-1.2504785	china and	-0.035522204
-1.2504785	books and	-0.035522204
-1.1479014	winter and	-0.035522204
-0.6865016	large and	-0.035522204
-1.0649828	confident and	-0.035522204
-1.0649828	chicopee and	-0.035522204
-0.6865016	capacity and	-0.035522204
-0.6865016	upgrades and	-0.035522204
-0.9354171	acquisitions and	-0.035522204
-1.2277687	process and	-0.035522204
-0.9354171	nicely and	-0.035522204
-0.5787972	costs and	-0.035522204
-1.1479014	significant and	-0.035522204
-0.54413116	apparel and	-0.035522178
-1.2065006	healthy and	-0.035522204
-0.63860154	position and	-0.11876795
-1.0649828	positions and	-0.035522204
-0.6865016	quickly and	-0.035522204
-1.1711842	investments and	-0.035522204
-1.4964123	sales and	-0.035522204
-1.0649828	plan and	-0.035522204
-1.1479014	mind and	-0.035522204
-0.72589254	transaction and	-0.16725639
-0.9414035	expenses and	-0.035522204
-0.41735315	ogio and	-0.11876795
-1.2504785	adjustments and	-0.035522204
-1.0649828	reporting and	-0.035522204
-0.2959178	gear and	-0.25557238
-0.9354171	bags and	-0.035522204
-1.2848628	accessories and	-0.035522204
-0.9354171	footwear and	-0.035522204
-0.9354171	category and	-0.035522204
-1.1569474	basis and	-0.035522204
-1.0649828	japan and	-0.035522204
-1.2065006	asia and	-0.035522204
-1.703891	million and	-0.035522204
-1.2504785	rates and	-0.035522204
-1.3849225	margins and	-0.035522204
-1.3847936	products and	-0.035522204
-1.2700526	period and	-0.035522204
-0.6865016	sheet and	-0.035522204
-1.1479014	flow and	-0.035522204
-1.2848628	inventory and	-0.035522204
-0.36594313	depreciation and	-0.16725639
-0.6865016	repurchases and	-0.035522204
-0.6865016	originates and	-0.035522204
-0.6865016	exchanges and	-0.035522204
-1.4224749	half and	-0.035522204
-0.6865016	provides and	-0.035522204
-1.3849225	question and	-0.035522204
-1.1479014	line and	-0.035522204
-1.1479014	correct and	-0.035522204
-0.63640594	okay and	-0.13108258
-1.0649828	visibility and	-0.035522204
-0.6865016	documented and	-0.035522204
-0.9354171	secondly and	-0.035522204
-0.52899814	them and	-0.035522204
-1.1479014	channel and	-0.035522204
-1.437264	yes and	-0.035522204
-1.1479014	helpful and	-0.035522204
-1.4552138	guys and	-0.035522204
-0.6865016	puts and	-0.035522204
-0.6865016	dilutive and	-0.035522204
-1.1479014	profitability and	-0.035522204
-1.0649828	cycle and	-0.035522204
-0.9354171	enough and	-0.035522204
-1.0907023	understand and	-0.035522204
-0.6865016	com and	-0.035522204
-1.0649828	clarification and	-0.035522204
-0.9354171	internationally and	-0.035522204
-0.6865016	strongly and	-0.035522204
-0.9354171	volume and	-0.035522204
-0.6865016	centers and	-0.035522204
-0.6865016	hose and	-0.035522204
-0.6865016	late and	-0.035522204
-0.9354171	investment and	-0.035522204
-0.6865016	cowen and	-0.035522204
-0.6865016	gain and	-0.035522204
-0.6865016	masters and	-0.035522204
-0.6865016	participation and	-0.035522204
-0.6865016	topgolf and	-0.035522204
-0.9354171	positive and	-0.035522204
-0.9354171	wider and	-0.035522204
-1.1711842	resonating and	-0.035522204
-0.9354171	courts and	-0.035522204
-0.6865016	reach and	-0.035522204
-0.9354171	efforts and	-0.035522204
-1.1479014	digital and	-0.035522204
-1.1479014	marketing and	-0.035522204
-1.0649828	ai and	-0.035522204
-0.6865016	messaging and	-0.035522204
-0.6865016	advantage and	-0.035522204
-0.9354171	presence and	-0.035522204
-0.6865016	employee and	-0.035522204
-0.6865016	sungolf and	-0.035522204
-1.1479014	casey and	-0.035522204
-0.6865016	asked and	-0.035522204
-0.6865016	engineering and	-0.035522204
-0.6865016	analysis and	-0.035522204
-0.6865016	consolidation and	-0.035522204
-3.0383668	and i'll	-0.035522204
-1.9369022	time i'll	-0.035522204
-0.7449127	authorization i'll	-0.035522204
-1.2132298	i'll be	-0.035522204
-1.7545309	would be	-0.035522204
-1.2853646	to be	-0.04703654
-0.52422154	will be	-0.035522178
-1.4287783	we'll be	-0.035522204
-1.5721506	should be	-0.035522204
-1.5686961	probably be	-0.035522204
-1.0403233	wouldn't be	-0.035522204
-1.0403233	certainly be	-0.035522204
-0.7425015	it'd be	-0.035522204
-2.061049	and your	-0.11876795
-2.036529	be your	-0.035522204
-1.5650493	company your	-0.035522204
-2.2402213	you your	-0.035522204
-2.4312537	of your	-0.035522204
-1.024257	begin your	-0.035522204
-2.362685	on your	-0.035522204
-2.0883257	in your	-0.035522204
-2.320535	for your	-0.035522204
-2.2596378	as your	-0.035522204
-1.9904876	now your	-0.035522204
-1.8832873	thanks your	-0.035522204
-1.5278522	sure your	-0.035522204
-1.9274052	about your	-0.035522204
-1.3904836	markets your	-0.035522204
-1.0229319	capital your	-0.16725639
-1.5222337	expect your	-0.035522204
-1.7046247	point your	-0.035522204
-1.5650493	versus your	-0.035522204
-0.7343345	morgan your	-0.035522204
-1.1956148	answer your	-0.035522204
-1.9702234	think your	-0.035522204
-1.8098619	down your	-0.035522204
-1.3904836	expecting your	-0.035522204
-0.7343345	problem your	-0.035522204
-1.3962924	said your	-0.035522204
-0.7343345	humphrey your	-0.035522204
-0.7343345	stephens your	-0.035522204
-0.7343345	fbr your	-0.035522204
-1.3038895	randy your	-0.035522204
-0.7343345	jefferies your	-0.035522204
-1.1895177	leverage your	-0.035522204
-1.024257	appreciate your	-0.035522204
-0.7343345	designing your	-0.035522204
-1.6464288	your conference	-0.035522204
-1.7757351	earnings conference	-0.035522204
-1.2200218	today's conference	-0.035522204
-1.8447558	margin conference	-0.035522204
-1.4410756	conference operator	-0.035522204
-1.3445194	release operator	-0.035522204
-1.6422997	questions operator	-0.035522204
-1.2175184	operator today	-0.035522204
-1.8922292	call today	-0.035522204
-1.2162869	officer today	-0.035522204
-1.8934301	results today	-0.035522204
-1.3390582	remarks today	-0.035522204
-1.631525	headwinds today	-0.035522204
-1.680563	slide today	-0.035522204
-2.2318096	and at	-0.035522204
-2.0618224	be at	-0.035522204
-1.5438216	today at	-0.035522204
-2.2744677	you at	-0.035522204
-2.2394316	are at	-0.035522204
-1.0268937	website at	-0.035522204
-1.9715505	us at	-0.035522204
-2.5673127	in at	-0.035522204
-1.193381	measures at	-0.035522204
-2.135771	have at	-0.035522204
-1.5742782	back at	-0.035522204
-2.239836	it at	-0.035522204
-1.524934	revenues at	-0.035522204
-2.254039	business at	-0.035522204
-0.5096289	look at	-0.11362343
-2.1820018	but at	-0.035522204
-2.142576	was at	-0.035522204
-1.0268937	quarterly at	-0.035522204
-0.73568505	aimed at	-0.035522204
-1.7667255	million at	-0.16725639
-1.0268937	receivable at	-0.035522204
-1.524934	inventory at	-0.035522204
-1.5742782	questions at	-0.035522204
-1.9916215	think at	-0.035522204
-1.8244469	down at	-0.035522204
-0.73568505	least at	-0.035522204
-1.3089234	others at	-0.035522204
-0.73568505	grow at	-0.035522204
-0.73568505	commenting at	-0.035522204
-1.0268937	again at	-0.035522204
-1.917621	is this	-0.035522204
-1.5363029	today this	-0.035522204
-0.65347195	at this	-0.38500965
-2.0905356	to this	-0.035522204
-1.7867556	q this	-0.035522204
-1.7041254	of this	-0.07515358
-1.9849402	quarter this	-0.035522204
-1.9339275	on this	-0.035522204
-2.2469795	in this	-0.035522204
-2.1974912	with this	-0.035522204
-2.3336074	that this	-0.035522204
-2.0083098	from this	-0.035522204
-2.3136127	for this	-0.035522204
-2.253112	as this	-0.035522204
-1.672746	increased this	-0.035522204
-1.1948245	take this	-0.035522204
-1.7747595	had this	-0.035522204
-2.1504483	but this	-0.035522204
-1.1885574	run this	-0.035522204
-1.7607323	into this	-0.035522204
-0.7339975	reflected this	-0.035522204
-1.388959	potential this	-0.035522204
-0.6775595	around this	-0.035522204
-1.1885574	ago this	-0.035522204
-1.3026401	mind this	-0.035522204
-0.7339975	fifth this	-0.035522204
-1.7014878	point this	-0.035522204
-1.6512944	products this	-0.035522204
-1.1885574	steven this	-0.035522204
-1.3026401	saw this	-0.035522204
-1.0236003	far this	-0.035522204
-1.3026401	general this	-0.035522204
-0.5551702	understand this	-0.035522204
-1.4578012	get this	-0.035522204
-0.7339975	amount this	-0.035522204
-2.2350745	your time	-0.035522204
-2.298208	this time	-0.035522204
-2.5056763	the time	-0.035522204
-1.9842205	first time	-0.035522204
-2.8450673	in time	-0.035522204
-1.9377195	over time	-0.035522204
-1.2122154	hard time	-0.035522204
-1.8544446	last time	-0.035522204
-1.5101596	long time	-0.035522204
-2.003657	one time	-0.035522204
-2.043116	about time	-0.035522204
-1.6659718	and i	-0.16150817
-1.7481109	time i	-0.035522204
-2.2954535	the i	-0.035522204
-1.6454952	callaway i	-0.035522204
-1.7480117	q i	-0.035522204
-1.8313628	you i	-0.035522204
-1.3710693	reported i	-0.035522204
-2.4141877	in i	-0.035522204
-2.235337	that i	-0.035522204
-2.118993	it i	-0.035522204
-1.0157964	slides i	-0.035522204
-1.7302868	overall i	-0.035522204
-1.7985687	business i	-0.16725639
-1.8403028	wolfskin i	-0.035522204
-1.9129664	guidance i	-0.035522204
-0.9093501	sure i	-0.035522204
-1.3710693	lot i	-0.035522204
-1.5363417	segment i	-0.035522204
-1.5752805	slide i	-0.035522204
-1.2621245	but i	-0.1586624
-2.0230439	which i	-0.035522204
-1.7850363	term i	-0.035522204
-1.5046434	so i	-0.035522204
-1.6910682	revenue i	-0.035522204
-1.8734818	about i	-0.035522204
-1.759681	ebitda i	-0.035522204
-1.0157964	headwind i	-0.035522204
-1.6158426	industry i	-0.035522204
-1.8096516	what i	-0.035522204
-1.2879212	mind i	-0.035522204
-1.7481109	then i	-0.035522204
-1.6655134	point i	-0.035522204
-1.4369115	interest i	-0.035522204
-1.6454952	question i	-0.035522204
-1.4981945	bookings i	-0.035522204
-1.7538574	yes i	-0.035522204
-1.7757735	guys i	-0.035522204
-1.6892968	guess i	-0.035522204
-1.0157964	enough i	-0.035522204
-0.72997403	housekeeping i	-0.035522204
-1.0157964	evening i	-0.035522204
-0.72997403	goals i	-0.035522204
-0.72997403	pricing i	-0.035522204
-1.0157964	inflection i	-0.035522204
-1.0157964	improving i	-0.035522204
-0.72997403	geographies i	-0.035522204
-0.72997403	soon i	-0.035522204
-1.3626727	i would	-0.09641348
-2.5688477	you would	-0.035522204
-2.2166846	we would	-0.035522204
-2.5017843	it would	-0.035522204
-2.2490804	which would	-0.035522204
-1.340417	balance would	-0.035522204
-1.7285265	would like	-0.035522204
-2.600935	we like	-0.035522204
-2.0866642	now like	-0.035522204
-1.6032035	headwinds like	-0.035522204
-0.558259	i'd like	-0.16725639
-1.4892285	years like	-0.035522204
-0.98122114	look like	-0.035522204
-1.8427024	do like	-0.035522204
-0.85540164	things like	-0.035522204
-1.9852235	not like	-0.035522204
-1.208461	change like	-0.035522204
-1.4188293	launches like	-0.035522204
-0.3834713	we'd like	-0.035522204
-0.73976207	breakeven like	-0.035522204
-0.73976207	sounds like	-0.035522204
-0.73976207	looks like	-0.035522204
-0.73976207	feels like	-0.035522204
-1.0349015	seems like	-0.035522204
-1.879524	is to	-0.035522204
-1.7224913	be to	-0.035522204
-1.1449081	like to	-0.035522204
-1.899582	to to	-0.035522204
-0.97756934	welcome to	-0.035522204
-0.97756934	everyone to	-0.035522204
-1.9497606	the to	-0.035522204
-1.6674712	you to	-0.035522204
-1.7883523	of to	-0.035522204
-1.8911248	a to	-0.035522204
-1.1633244	results to	-0.035522204
-2.095363	in to	-0.035522204
-1.1228017	measures to	-0.035522204
-1.516925	have to	-0.035522204
-1.420711	back to	-0.035522204
-1.420711	forward to	-0.035522204
-1.628228	it to	-0.035522204
-1.6737897	also to	-0.035522204
-0.7097599	choose to	-0.035522204
-0.97756934	webcast to	-0.035522204
-0.7097599	listen to	-0.035522204
-0.30580658	able to	-0.035522204
-1.3850569	now to	-0.035522204
-1.0187671	over to	-0.11876795
-1.1228017	starting to	-0.035522204
-0.89546317	pleased to	-0.035522204
-0.488984	start to	-0.25557238
-1.5527842	year to	-0.16725639
-1.6499778	up to	-0.035522204
-1.6191306	by to	-0.035522204
-1.6444864	business to	-0.035522204
-1.6323314	wolfskin to	-0.035522204
-1.5795964	travismathew to	-0.035522204
-1.4971008	increased to	-0.035522204
-1.3854867	segments to	-0.035522204
-1.1552562	guidance to	-0.11876795
-0.7097599	chance to	-0.035522204
-1.3425676	opportunity to	-0.035522204
-0.7097599	motivated to	-0.035522204
-1.2189294	improve to	-0.035522204
-0.6635329	turning to	-0.16725639
-1.5194392	flat to	-0.035522204
-0.373775	positioned to	-0.16725639
-0.21272767	continue to	-0.035522204
-0.15694265	continues to	-0.08353304
-0.7097599	reaction to	-0.035522204
-1.1465349	has to	-0.035522204
-0.7097599	according to	-0.035522204
-1.657777	or to	-0.035522204
-0.74845827	lead to	-0.035522204
-0.7097599	testament to	-0.035522204
-1.3567808	things to	-0.035522204
-0.1120197	due to	-0.16108897
-1.5673167	out to	-0.035522204
-1.0132973	expected to	-0.035522204
-0.373775	led to	-0.16725639
-1.2189294	anticipated to	-0.035522204
-0.13555236	related to	-0.37041408
-0.7097599	desired to	-0.035522204
-1.3425676	two to	-0.035522204
-1.1228017	addition to	-0.035522204
-1.1228017	anticipate to	-0.035522204
-0.064419836	compared to	-0.19632521
-0.8797461	expect to	-0.035522204
-0.97756934	january to	-0.035522204
-1.7204134	how to	-0.035522204
-1.2766753	million to	-0.33385712
-0.373775	attributable to	-0.16725639
-0.74845827	accretive to	-0.035522204
-0.7097599	used to	-0.035522204
-0.7097599	regard to	-0.035522204
-0.7097599	needed to	-0.035522204
-0.97756934	mainly to	-0.035522204
-0.97756934	billion to	-0.035522204
-1.2888215	estimated to	-0.035522204
-1.4454179	just to	-0.035522204
-1.6911409	think to	-0.035522204
-0.373775	relative to	-0.035522204
-1.1848615	down to	-0.035522204
-1.2888215	expecting to	-0.035522204
-0.38784164	going to	-0.12207204
-0.7097599	contribute to	-0.035522204
-0.373775	close to	-0.035522204
-0.97756934	way to	-0.035522204
-0.7097599	context to	-0.035522204
-1.2888215	off to	-0.035522204
-1.3425676	get to	-0.035522204
-0.30580658	direct to	-0.20891841
-0.373775	trying to	-0.035522204
-0.7097599	referred to	-0.035522204
-0.3011861	wanted to	-0.09641348
-0.373775	medium to	-0.035522204
-0.7097599	difficult to	-0.035522204
-0.97756934	talking to	-0.035522204
-0.7097599	appears to	-0.035522204
-0.97756934	again to	-0.035522204
-0.7097599	ability to	-0.035522204
-0.97756934	seems to	-0.035522204
-0.373775	want to	-0.035522204
-1.1228017	element to	-0.035522204
-1.1228017	plans to	-0.035522204
-0.7097599	invisible to	-0.035522204
-0.7097599	respond to	-0.035522204
-0.7097599	regards to	-0.035522204
-0.7097599	glad to	-0.035522204
-0.7097599	switching to	-0.035522204
-0.7097599	alluded to	-0.035522204
-0.7097599	afford to	-0.035522204
-0.7097599	helps to	-0.035522204
-2.9285479	to welcome	-0.035522204
-1.0453905	everyone welcome	-0.035522204
-1.694215	afternoon everyone	-0.035522204
-1.0453905	welcome everyone	-0.035522204
-1.0924978	is the	-0.035522204
-1.115975	and the	-0.035522178
-1.3980421	be the	-0.035522204
-1.4059275	today the	-0.035522204
-0.76522267	at the	-0.06926564
-0.700102	like the	-0.035522204
-1.0883037	to the	-0.081584916
-1.8577838	thank the	-0.035522204
-1.770028	you the	-0.035522204
-0.96135014	burke the	-0.035522204
-0.70084	of the	-0.12136189
-1.6671038	first the	-0.035522204
-1.3501194	quarter the	-0.035522204
-0.6419311	on the	-0.067948356
-1.7199991	are the	-0.035522204
-0.5117607	in the	-0.2544567
-1.0639757	where the	-0.035522204
-1.4717913	have the	-0.035522204
-0.7009305	reconciled the	-0.035522204
-0.53072834	with the	-0.061537318
-1.1812375	that the	-0.05668987
-0.96135014	include the	-0.035522204
-1.3771267	forward the	-0.035522204
-0.7169562	from the	-0.06926564
-0.7009305	review the	-0.035522204
-0.5053165	for the	-0.17506176
-1.3547208	there the	-0.035522204
-1.7599347	it the	-0.035522204
-0.96135014	follow the	-0.035522204
-0.7009305	join the	-0.035522204
-0.96135014	view the	-0.035522204
-1.8514997	as the	-0.035522204
-0.44506043	through the	-0.08353304
-0.37083456	turn the	-0.16725639
-0.5608543	over the	-0.27095234
-1.5329999	start the	-0.035522204
-1.6944633	year the	-0.035522204
-1.5117213	both the	-0.035522204
-1.2469712	up the	-0.035522204
-1.5018555	overall the	-0.035522204
-1.0066051	by the	-0.035522204
-1.7128278	growth the	-0.035522204
-1.52173	well the	-0.035522204
-1.2917392	all the	-0.035522204
-1.6162405	operating the	-0.035522204
-0.96135014	transforming the	-0.035522204
-1.5909197	had the	-0.035522204
-1.0756437	but the	-0.035522178
-1.2328525	than the	-0.035522204
-1.47847	was the	-0.035522204
-1.5394193	term the	-0.035522204
-1.2100666	timing the	-0.035522204
-1.512133	do the	-0.035522204
-1.1132294	so the	-0.07515358
-0.96135014	demonstrating the	-0.035522204
-0.40167108	across the	-0.07515358
-0.96135014	doing the	-0.035522204
-1.5435675	has the	-0.035522204
-1.3058661	set the	-0.035522204
-1.1003059	side the	-0.035522204
-1.4379084	part the	-0.035522204
-0.7009305	earned the	-0.035522204
-1.345145	being the	-0.035522204
-1.1148554	into the	-0.035522204
-0.7009305	either the	-0.035522204
-1.5881217	or the	-0.035522204
-1.191036	clubs the	-0.035522204
-1.2562361	even the	-0.035522204
-1.191036	importantly the	-0.035522204
-1.5984023	right the	-0.035522204
-1.5119419	out the	-0.035522204
-0.7783728	about the	-0.035522178
-1.3058661	future the	-0.035522204
-1.4392632	expected the	-0.035522204
-1.5009441	lower the	-0.035522204
-1.191036	winter the	-0.035522204
-1.2562361	result the	-0.035522204
-1.364005	it's the	-0.035522204
-1.5647967	what the	-0.035522204
-0.7009305	setting the	-0.035522204
-1.3605884	expect the	-0.035522204
-0.53708476	cover the	-0.035522204
-0.37083456	upon the	-0.035522204
-1.376141	should the	-0.035522204
-1.2689551	how the	-0.035522204
-1.4059275	purchase the	-0.035522204
-0.96135014	following the	-0.035522204
-1.2562361	includes the	-0.035522204
-1.5792075	basis the	-0.035522204
-1.5123005	then the	-0.035522204
-1.1003059	excludes the	-0.035522204
-1.5716835	million the	-0.035522204
-0.5142295	excluding the	-0.11876795
-1.191036	including the	-0.035522204
-1.4664795	see the	-0.035522204
-1.46242	point the	-0.035522204
-1.4526582	products the	-0.035522204
-1.2100666	offset the	-0.035522204
-0.7009305	fund the	-0.035522204
-1.3771267	versus the	-0.035522204
-0.42289406	given the	-0.035522204
-1.426269	open the	-0.035522204
-0.7009305	impacting the	-0.035522204
-0.53708476	reflects the	-0.035522204
-0.7009305	towards the	-0.035522204
-0.53708476	during the	-0.035522204
-1.0673325	just the	-0.035522204
-0.43861088	within the	-0.035522204
-0.91693854	obviously the	-0.035522204
-0.37083456	throughout the	-0.035522204
-1.1003059	seeing the	-0.035522204
-1.1003059	confidence the	-0.035522204
-0.53708476	answer the	-0.035522204
-1.1003059	issue the	-0.035522204
-0.7009305	cooperate the	-0.035522204
-1.1003059	putting the	-0.035522204
-1.2562361	dave the	-0.035522204
-1.4771668	guess the	-0.035522204
-1.5425946	down the	-0.035522204
-1.2562361	expecting the	-0.035522204
-0.7009305	sorry the	-0.035522204
-0.96135014	eventually the	-0.035522204
-1.3058661	get the	-0.035522204
-1.2738992	candidly the	-0.035522204
-0.96135014	does the	-0.035522204
-0.7009305	gave the	-0.035522204
-0.7009305	buckets the	-0.035522204
-0.7009305	winning the	-0.035522204
-0.7009305	clear the	-0.035522204
-1.1003059	means the	-0.035522204
-0.7009305	buy the	-0.035522204
-0.96135014	expand the	-0.035522204
-0.96135014	keeping the	-0.035522204
-0.96135014	appreciate the	-0.035522204
-0.7009305	expensive the	-0.035522204
-0.7009305	ourselves the	-0.035522204
-0.7009305	creating the	-0.035522204
-2.8368003	and callaway	-0.035522204
-2.3445194	the callaway	-0.20891841
-2.888072	in callaway	-0.035522204
-1.7737622	with callaway	-0.035522204
-2.1692994	from callaway	-0.035522204
-1.0410057	transforming callaway	-0.035522204
-0.7428451	study callaway	-0.035522204
-2.0794873	or callaway	-0.035522204
-1.4304496	includes callaway	-0.035522204
-2.3167853	is golf	-0.035522204
-2.4869955	and golf	-0.035522204
-1.9639428	to golf	-0.035522204
-1.7782335	the golf	-0.16211084
-1.1039236	callaway golf	-0.035522204
-2.0223055	of golf	-0.035522204
-1.8014128	our golf	-0.16725639
-2.279131	in golf	-0.035522204
-1.9084593	for golf	-0.035522204
-1.9201906	more golf	-0.035522204
-1.310191	major golf	-0.035522204
-1.6996574	flat golf	-0.035522204
-1.310191	erc golf	-0.035522204
-1.0275555	multiple golf	-0.035522204
-1.5270206	being golf	-0.035522204
-0.7360233	spring golf	-0.035522204
-1.7720797	apparel golf	-0.035522204
-1.9113221	other golf	-0.035522204
-1.0275555	premium golf	-0.035522204
-1.398188	includes golf	-0.035522204
-1.0275555	bags golf	-0.035522204
-0.7360233	clothes golf	-0.035522204
-1.9105603	those golf	-0.035522204
-1.5945787	core golf	-0.035522204
-1.959744	very golf	-0.035522204
-1.1943521	traditional golf	-0.035522204
-1.398188	off golf	-0.035522204
-0.7360233	national golf	-0.035522204
-0.7360233	noncore golf	-0.035522204
-2.925993	and company	-0.035522204
-2.3741307	the company	-0.035522204
-2.3546205	golf company	-0.035522204
-2.6630182	our company	-0.035522204
-1.8947861	overall company	-0.035522204
-1.340417	lifestyle company	-0.035522204
-2.8645444	and q	-0.035522204
-2.9249392	the q	-0.035522204
-1.6288726	company q	-0.035522204
-2.8236144	of q	-0.035522204
-1.511464	in q	-0.08599938
-1.2166872	during q	-0.035522204
-1.6302545	obviously q	-0.035522204
-0.6844706	early q	-0.035522204
-2.8107224	and earnings	-0.035522204
-2.307699	this earnings	-0.035522204
-2.8577874	the earnings	-0.035522204
-1.8806355	q earnings	-0.035522204
-1.5066044	company's earnings	-0.035522204
-2.1526415	quarter earnings	-0.035522204
-1.5704447	gaap earnings	-0.035522204
-0.7425015	diluted earnings	-0.035522204
-1.4287783	estimated earnings	-0.035522204
-0.7425015	gap earnings	-0.035522204
-1.7803825	earnings release	-0.035522204
-0.38513246	press release	-0.035522204
-0.5611845	operator instructions	-0.035522204
-2.6621342	and thank	-0.035522204
-1.4202775	conference thank	-0.035522204
-2.5648627	to thank	-0.035522204
-1.7316931	callaway thank	-0.035522204
-1.0355755	instructions thank	-0.035522204
-1.9402888	you thank	-0.16725639
-2.0988088	quarter thank	-0.035522204
-2.3620796	it thank	-0.035522204
-2.381803	business thank	-0.035522204
-2.3031838	so thank	-0.035522204
-1.6603696	great thank	-0.035522204
-1.8701718	yes thank	-0.035522204
-1.3256985	helpful thank	-0.035522204
-1.295588	guys thank	-0.16725639
-0.74010354	awesome thank	-0.035522204
-0.74010354	wonderful thank	-0.035522204
-0.74010354	alright thank	-0.035522204
-1.4119669	like you	-0.035522204
-1.9039176	to you	-0.035522204
-2.0933905	golf you	-0.035522204
-0.069912106	thank you	-0.13881262
-1.2915545	relations you	-0.035522204
-1.9375412	quarter you	-0.035522204
-1.751599	call you	-0.035522204
-1.0897906	are you	-0.06490152
-1.1293066	where you	-0.16725639
-1.9975346	that you	-0.035522204
-1.4420406	could you	-0.035522204
-1.0177343	encourage you	-0.035522204
-1.4732434	for you	-0.035522204
-1.2915545	remarks you	-0.035522204
-1.0177343	tab you	-0.035522204
-0.46015173	can you	-0.17949283
-1.5909516	as you	-0.035522204
-0.73097646	participant you	-0.035522204
-2.066718	year you	-0.035522204
-1.588879	acquisition you	-0.035522204
-1.2155596	do you	-0.035522204
-1.7098907	so you	-0.035522204
-1.4491351	things you	-0.035522204
-1.3754731	markets you	-0.035522204
-1.7697597	ebitda you	-0.035522204
-1.6231667	industry you	-0.035522204
-1.820756	what you	-0.035522204
-1.7103966	when you	-0.035522204
-0.73097646	remind you	-0.035522204
-1.3827786	prior you	-0.035522204
-1.7262241	share you	-0.035522204
-1.1800076	maybe you	-0.035522204
-0.36277688	if you	-0.2374848
-1.1877747	gives you	-0.035522204
-1.920931	think you	-0.035522204
-1.3827786	did you	-0.035522204
-1.698511	guess you	-0.035522204
-1.0177343	targets you	-0.035522204
-0.31096697	give you	-0.035522204
-0.73097646	noted you	-0.035522204
-1.1800076	specifically you	-0.035522204
-0.38067877	stores you	-0.16725639
-0.73097646	communities you	-0.035522204
-0.73097646	taught you	-0.035522204
-2.6451864	you mr	-0.035522204
-0.7449127	mr patrick	-0.035522204
-1.7795498	i'm patrick	-0.035522204
-2.0328674	thanks patrick	-0.035522204
-0.5611845	patrick burke	-0.035522204
-2.1920023	the company's	-0.035522178
-1.0453905	burke company's	-0.035522204
-0.8619014	company's head	-0.16725639
-1.5614846	time of	-0.035522204
-1.1592207	q of	-0.035522204
-0.70817	head of	-0.035522204
-1.3808538	quarter of	-0.049100596
-0.70817	copy of	-0.035522204
-0.70817	section of	-0.035522204
-0.37720084	most of	-0.1586624
-2.0775197	in of	-0.035522204
-1.4126004	back of	-0.035522204
-0.9746283	view of	-0.035522204
-1.690928	now of	-0.035522204
-0.70817	page of	-0.035522204
-1.7611582	year of	-0.035522204
-1.5596672	performance of	-0.035522204
-1.5540965	both of	-0.035522204
-1.3301996	growth of	-0.035522204
-1.0952632	increase of	-0.09641348
-1.4539796	acquisition of	-0.035522204
-1.6192045	wolfskin of	-0.035522204
-1.1518979	guidance of	-0.11876795
-1.2828205	lot of	-0.035522204
-0.70817	front of	-0.035522204
-1.4126004	segment of	-0.035522204
-1.4415549	slide of	-0.035522204
-1.802134	which of	-0.035522204
-1.3140827	approximately of	-0.035522204
-0.70817	exception of	-0.035522204
-0.6579476	timing of	-0.11876795
-0.70817	breadth of	-0.035522204
-1.1186981	side of	-0.035522204
-0.2988776	part of	-0.08353304
-0.70817	claim of	-0.035522204
-1.6295973	one of	-0.035522204
-0.70817	majority of	-0.035522204
-0.70817	worthy of	-0.035522204
-1.1323179	out of	-0.035522204
-1.335782	future of	-0.035522204
-1.2828205	markets of	-0.035522204
-1.2828205	result of	-0.035522204
-0.70817	many of	-0.035522204
-0.7469169	process of	-0.035522204
-0.30541217	type of	-0.035522204
-1.1186981	addition of	-0.035522204
-0.70817	strengthening of	-0.035522204
-1.6464708	sales of	-0.035522204
-0.70817	prospects of	-0.035522204
-0.70817	effects of	-0.035522204
-1.2138152	lifestyle of	-0.035522204
-0.6185858	some of	-0.43076712
-1.4667704	expenses of	-0.035522204
-1.4320964	purchase of	-0.035522204
-0.70817	licensing of	-0.035522204
-0.9746283	size of	-0.035522204
-0.30541217	rest of	-0.11876795
-1.5388705	expense of	-0.035522204
-1.149469	million of	-0.08353304
-1.5059899	point of	-0.035522204
-1.2138152	impact of	-0.035522204
-1.4987316	margins of	-0.035522204
-1.335782	points of	-0.035522204
-1.4056916	decrease of	-0.035522204
-0.6579476	seasonality of	-0.16725639
-0.70817	mix of	-0.035522204
-1.1186981	income of	-0.035522204
-0.81829995	period of	-0.035522204
-1.5467463	share of	-0.035522204
-1.2138152	balance of	-0.035522204
-0.70817	end of	-0.035522204
-0.30082768	portion of	-0.13751881
-0.9746283	rate of	-0.035522204
-0.37324846	quality of	-0.11876795
-0.70817	settlement of	-0.035522204
-0.6579476	range of	-0.035522204
-0.70817	contribution of	-0.035522204
-0.8972013	half of	-0.10156876
-1.2138152	line of	-0.035522178
-1.4126004	much of	-0.035522204
-0.9280502	bit of	-0.035522204
-0.9746283	level of	-0.035522204
-0.206744	couple of	-0.035522204
-0.70817	slowing of	-0.035522204
-1.2138152	any of	-0.035522204
-0.70817	sort of	-0.035522204
-1.2138152	profitability of	-0.035522204
-0.70817	terms of	-0.035522204
-0.07135123	kind of	-0.07197324
-1.2828205	off of	-0.035522204
-0.70817	host of	-0.035522204
-0.70817	nature of	-0.035522204
-1.1186981	areas of	-0.035522204
-0.70817	none of	-0.035522204
-0.70817	target of	-0.035522204
-0.9746283	earlier of	-0.035522204
-1.1186981	percent of	-0.035522204
-0.5410976	because of	-0.035522204
-0.37324846	best of	-0.035522204
-0.70817	state of	-0.035522204
-0.70817	efficiencies of	-0.035522204
-0.70817	sport of	-0.035522204
-1.2304425	curious of	-0.035522204
-0.9746283	ahead of	-0.035522204
-0.70817	health of	-0.035522204
-0.30541217	outside of	-0.035522204
-0.70817	success of	-0.035522204
-1.1186981	development of	-0.035522204
-1.1186981	element of	-0.035522204
-0.70817	middle of	-0.035522204
-0.70817	specifics of	-0.035522204
-0.70817	ballpark of	-0.035522204
-0.9746283	use of	-0.035522204
-0.70817	utilization of	-0.035522204
-0.70817	types of	-0.035522204
-0.70817	example of	-0.035522204
-0.70817	uses of	-0.035522204
-3.1600492	the investor	-0.035522204
-1.5194428	company's investor	-0.035522204
-2.9676862	of investor	-0.035522204
-0.3143335	investor relations	-0.035522204
-2.004133	you may	-0.035522204
-2.8357372	that may	-0.035522204
-2.9285479	to begin	-0.035522204
-1.2207968	may begin	-0.035522204
-2.9530642	to callaway's	-0.035522204
-2.2147057	your first	-0.035522204
-1.6423134	the first	-0.3350101
-0.74112964	callaway's first	-0.035522204
-1.853328	our first	-0.11876795
-1.4221568	its first	-0.035522204
-1.8881776	strong first	-0.035522204
-2.4175107	business first	-0.035522204
-2.3314326	so first	-0.035522204
-1.2091868	digits first	-0.035522204
-0.74112964	comparisons first	-0.035522204
-1.2091868	consolidated first	-0.035522204
-1.0376039	impacted first	-0.035522204
-1.7413341	question first	-0.035522204
-1.8033259	guess first	-0.035522204
-1.5045905	good quarter	-0.16725639
-2.327327	this quarter	-0.035522204
-2.1572504	the quarter	-0.035522234
-0.46806577	first quarter	-0.05870305
-1.9147698	strong quarter	-0.035522204
-1.8649375	last quarter	-0.035522204
-1.5102339	second quarter	-0.035522204
-1.6841446	next quarter	-0.035522204
-0.7808269	conference call	-0.035522204
-2.327327	this call	-0.035522204
-1.8270074	i call	-0.035522204
-2.1572504	the call	-0.035522178
-0.5600863	today's call	-0.035522204
-0.74318904	special call	-0.035522204
-1.4321272	we'll call	-0.035522204
-2.4180381	million call	-0.035522204
-2.7861223	and i'm	-0.035522204
-1.8746369	call i'm	-0.035522204
-1.4290693	me i'm	-0.035522204
-1.5664002	presentation i'm	-0.035522204
-2.4326806	it i'm	-0.035522204
-2.45642	business i'm	-0.035522204
-1.5664002	segments i'm	-0.035522204
-2.3616476	so i'm	-0.035522204
-2.0036077	those i'm	-0.035522204
-1.8929434	if i'm	-0.035522204
-1.0396417	alex i'm	-0.035522204
-1.3450518	relations joining	-0.035522204
-2.6253092	for joining	-0.035522204
-2.100844	like me	-0.035522204
-1.0437465	joining me	-0.035522204
-1.3417802	correct me	-0.035522204
-0.7442224	let me	-0.035522204
-0.7442224	surprise me	-0.035522204
-2.1634893	and on	-0.035522204
-1.8618749	be on	-0.035522204
-1.6848772	q on	-0.035522204
-1.8095624	first on	-0.035522204
-1.4481148	quarter on	-0.035522204
-1.3507266	me on	-0.035522204
-1.740338	are on	-0.035522204
-1.1571051	available on	-0.035522204
-1.1571051	discussed on	-0.035522204
-0.12757093	based on	-0.035522234
-2.2728882	in on	-0.035522204
-1.7581758	more on	-0.035522204
-0.7226931	download on	-0.035522204
-1.8006203	also on	-0.035522204
-1.4421538	now on	-0.035522204
-1.1571051	starting on	-0.035522204
-1.6413958	start on	-0.035522204
-1.6382642	year on	-0.035522204
-1.3400711	goods on	-0.035522204
-1.3192501	up on	-0.035522204
-2.0073955	business on	-0.035522204
-1.6914703	well on	-0.035522204
-1.6698368	do on	-0.035522204
-1.4505134	driver on	-0.035522204
-0.7226931	records on	-0.035522204
-1.3168678	one on	-0.035522204
-1.0018437	putter on	-0.035522204
-0.7226931	feedback on	-0.035522204
-1.3400711	even on	-0.035522204
-1.1571051	build on	-0.035522204
-1.6533256	lower on	-0.035522204
-1.6921549	ebitda on	-0.035522204
-1.4010429	distribution on	-0.035522204
-1.4214158	costs on	-0.035522204
-0.7226931	focused on	-0.035522204
-1.4505134	accessories on	-0.035522204
-1.6776028	then on	-0.035522204
-1.6851522	million on	-0.035522204
-1.043463	see on	-0.035522204
-1.4214158	cash on	-0.035522204
-1.3507266	accretive on	-0.035522204
-0.7226931	displayed on	-0.035522204
-0.37801048	comment on	-0.035522204
-0.7226931	seen on	-0.035522204
-1.1571051	steven on	-0.035522204
-1.3068761	just on	-0.11876795
-0.7226931	details on	-0.035522204
-1.0018437	elaborate on	-0.035522204
-0.7226931	works on	-0.035522204
-1.699618	down on	-0.035522204
-0.7226931	optimistic on	-0.035522204
-1.1571051	clarification on	-0.035522204
-0.7226931	comp on	-0.035522204
-1.0018437	together on	-0.035522204
-0.7226931	piggybacking on	-0.035522204
-0.7226931	stronger on	-0.035522204
-0.7226931	detail on	-0.035522204
-0.7226931	light on	-0.035522204
-0.37801048	congrats on	-0.035522204
-0.66901016	curious on	-0.11876795
-0.7226931	worn on	-0.035522204
-0.7226931	measured on	-0.035522204
-1.0018437	efforts on	-0.035522204
-1.1571051	plans on	-0.035522204
-1.0018437	expand on	-0.035522204
-0.7226931	life on	-0.035522204
-0.7226931	lost on	-0.035522204
-0.7226931	jumping on	-0.035522204
-0.7226931	patience on	-0.035522204
-2.026028	on today's	-0.16725639
-3.0506554	in today's	-0.035522204
-1.0451233	concludes today's	-0.035522204
-1.8785824	and are	-0.035522204
-1.6614201	callaway are	-0.035522204
-1.6672124	earnings are	-0.035522204
-1.667315	you are	-0.035522204
-1.9527733	quarter are	-0.035522204
-1.7614503	call are	-0.035522204
-1.7671081	results are	-0.035522204
-1.502621	presentation are	-0.035522204
-1.6946924	where are	-0.035522204
-0.74837655	we are	-0.06315283
-1.847559	that are	-0.035522204
-0.7411142	there are	-0.07515358
-2.0861492	year are	-0.035522204
-1.502621	revenues are	-0.035522204
-1.8630764	up are	-0.035522204
-1.8623209	market are	-0.035522204
-2.0496294	which are	-0.035522204
-1.8962156	or are	-0.035522204
-1.7826806	right are	-0.035522204
-1.4472308	china are	-0.035522204
-1.1828388	projects are	-0.035522204
-1.4472308	two are	-0.035522204
-1.8321517	what are	-0.035522204
-0.73198116	decisions are	-0.035522204
-1.8953092	how are	-0.035522204
-1.1274308	those are	-0.035522204
-1.4472308	rates are	-0.035522204
-1.6614201	margins are	-0.035522204
-0.73198116	figures are	-0.035522204
-0.91024137	bookings are	-0.035522204
-1.0196809	achievable are	-0.035522204
-1.2272248	they are	-0.035522204
-1.7079248	guess are	-0.035522204
-0.73198116	recovery are	-0.035522204
-0.73198116	percentages are	-0.035522204
-0.73198116	midpoint are	-0.035522204
-0.73198116	confirm are	-0.035522204
-0.73198116	metrics are	-0.035522204
-0.73198116	customers are	-0.035522204
-0.73198116	sold are	-0.035522204
-0.73198116	exactly are	-0.035522204
-1.6761966	afternoon chip	-0.035522204
-2.5641446	is chip	-0.035522204
-2.7294095	to chip	-0.035522204
-2.519164	you chip	-0.035522204
-2.5012646	are chip	-0.035522204
-1.8802452	as chip	-0.16725639
-1.9996119	thanks chip	-0.035522204
-2.1663692	it's chip	-0.035522204
-1.9057962	then chip	-0.035522204
-1.083333	chip brewer	-0.035522204
-1.5173751	and our	-0.035522204
-1.9988074	at our	-0.035522178
-1.8754205	like our	-0.035522204
-1.854513	to our	-0.035522204
-1.2529014	of our	-0.050943535
-1.6918533	on our	-0.035522204
-1.008764	brewer our	-0.035522204
-0.7263183	lynch our	-0.035522204
-0.7263183	thomas our	-0.035522204
-1.7154955	results our	-0.035522204
-1.4702454	presentation our	-0.035522204
-1.3338438	in our	-0.05488597
-1.1399744	with our	-0.035522204
-1.799324	that our	-0.035522204
-1.9031391	from our	-0.035522204
-1.6504911	for our	-0.035522204
-0.43236983	under our	-0.035522204
-1.6268964	through our	-0.035522204
-1.9860216	year our	-0.035522204
-1.1518912	both our	-0.035522204
-1.6803939	increase our	-0.035522204
-1.7264379	well our	-0.035522204
-1.0893788	believe our	-0.035522204
-1.4876161	sure our	-0.035522204
-1.5503024	slide our	-0.035522204
-1.4513886	but our	-0.035522204
-1.7886986	than our	-0.035522204
-1.6289884	continue our	-0.035522204
-2.0335166	so our	-0.035522204
-1.5965103	across our	-0.035522204
-1.6839051	been our	-0.035522204
-0.7263183	anticipating our	-0.035522204
-0.7263183	issues our	-0.035522204
-1.177031	getting our	-0.035522204
-0.7263183	achieve our	-0.035522204
-0.7263183	reiterating our	-0.035522204
-0.7263183	lowering our	-0.035522204
-0.7263183	evaluating our	-0.035522204
-0.7263183	comparing our	-0.035522204
-0.7263183	evaluate our	-0.035522204
-0.7263183	discussing our	-0.035522204
-0.7263183	reevaluated our	-0.035522204
-0.7263183	changed our	-0.035522204
-0.7263183	companies our	-0.035522204
-1.2748535	impact our	-0.035522204
-1.2748535	particularly our	-0.035522204
-0.7263183	reiterate our	-0.035522204
-0.7263183	increasing our	-0.035522204
-1.4186071	estimate our	-0.035522204
-0.7263183	refining our	-0.035522204
-1.008764	concludes our	-0.035522204
-1.8601522	think our	-0.035522204
-1.1670337	putting our	-0.035522204
-1.7179672	yes our	-0.035522204
-1.008764	launching our	-0.035522204
-1.008764	high our	-0.035522204
-0.7263183	adjust our	-0.035522204
-1.008764	factored our	-0.035522204
-2.7697651	our president	-0.035522204
-3.055248	and chief	-0.035522204
-2.1381946	our chief	-0.035522204
-1.22142	chief executive	-0.035522204
-0.7449127	executive officer	-0.035522204
-1.441524	financial officer	-0.035522204
-1.3445194	accounting officer	-0.035522204
-1.7724159	earnings brian	-0.035522204
-1.218337	officer brian	-0.035522204
-2.771081	that brian	-0.035522204
-1.926284	then brian	-0.035522204
-1.0437465	ahead brian	-0.035522204
-1.4423149	brian lynch	-0.035522204
-3.0503569	the financial	-0.035522204
-2.195638	quarter financial	-0.035522204
-1.218337	chief financial	-0.035522204
-1.871987	these financial	-0.035522204
-1.0437465	specific financial	-0.035522204
-3.0828934	and jennifer	-0.035522204
-0.74525476	jennifer thomas	-0.035522204
-1.2203969	chief accounting	-0.035522204
-0.7449127	accepted accounting	-0.035522204
-0.4548636	purchase accounting	-0.1586624
-1.6450078	company issued	-0.035522204
-1.5028768	is a	-0.035522178
-1.726907	and a	-0.035522178
-1.3288467	be a	-0.035522204
-1.7082413	time a	-0.035522204
-1.9708148	to a	-0.035522204
-1.7715982	of a	-0.035522178
-0.9574733	on a	-0.10239692
-1.7710726	are a	-0.035522204
-0.72598755	issued a	-0.035522204
-1.7126423	results a	-0.035522204
-1.4168168	in a	-0.13747558
-1.0945201	have a	-0.035522204
-1.8990968	from a	-0.035522204
-2.1738894	for a	-0.035522204
-2.0502677	it a	-0.035522204
-1.8390989	also a	-0.035522204
-1.057978	as a	-0.27721062
-1.6250881	through a	-0.035522204
-1.7940326	over a	-0.035522204
-1.7916291	thanks a	-0.035522204
-0.72598755	announce a	-0.035522204
-1.3309718	up a	-0.035522204
-1.755727	by a	-0.035522204
-0.5508466	take a	-0.035522204
-0.37198585	had a	-0.09641348
-1.4405578	was a	-0.035522204
-1.7081732	has a	-0.035522204
-1.1749645	been a	-0.035522204
-1.1771646	into a	-0.035522204
-1.3880986	or a	-0.035522204
-1.0081303	declined a	-0.035522204
-1.4169806	china a	-0.035522204
-1.0081303	establishing a	-0.035522204
-0.72598755	overcoming a	-0.035522204
-0.5508466	getting a	-0.035522204
-1.3538876	learning a	-0.035522204
-1.2671454	it's a	-0.035522204
-2.0735242	million a	-0.035522204
-0.72598755	while a	-0.035522204
-1.0081303	represent a	-0.035522204
-1.3170079	just a	-0.11876795
-1.5198421	obviously a	-0.035522204
-1.7368267	really a	-0.035522204
-1.0081303	elaborate a	-0.035522204
-1.1872165	that's a	-0.035522204
-1.1661217	improved a	-0.035522204
-1.2296042	down a	-0.035522204
-1.3900325	wanted a	-0.035522204
-1.0081303	paying a	-0.035522204
-0.72493285	there's a	-0.035522204
-1.1661217	talk a	-0.035522204
-1.0081303	apply a	-0.035522204
-1.0081303	helping a	-0.035522204
-0.72598755	invested a	-0.035522204
-0.72598755	happened a	-0.035522204
-0.72598755	gets a	-0.035522204
-1.0081303	opened a	-0.035522204
-1.0081303	generating a	-0.035522204
-0.72598755	went a	-0.035522204
-2.6406088	the press	-0.16725639
-2.7556427	a press	-0.035522204
-1.3458816	release announcing	-0.035522204
-0.74456745	announcing its	-0.035522204
-2.4467306	in its	-0.035522204
-2.1029906	brand its	-0.035522204
-2.0854697	about its	-0.035522204
-2.1609068	quarter results	-0.035522204
-2.0951514	our results	-0.035522204
-0.534906	financial results	-0.035522204
-1.2142464	generally results	-0.035522204
-1.5725745	gaap results	-0.035522204
-0.7428451	actual results	-0.035522204
-2.3769517	year results	-0.035522204
-1.2220376	these results	-0.035522204
-1.0410057	reclassification results	-0.035522204
-2.7714756	a copy	-0.035522204
-3.101749	the associated	-0.035522204
-1.5827335	revenues associated	-0.035522204
-1.5169344	facility associated	-0.035522204
-1.0444344	expertise associated	-0.035522204
-2.35854	this presentation	-0.035522204
-3.0503569	the presentation	-0.035522204
-1.7724159	earnings presentation	-0.035522204
-1.3426261	associated presentation	-0.035522204
-0.7442224	powerpoint presentation	-0.035522204
-2.677795	is available	-0.035522204
-2.618398	are available	-0.035522204
-0.7449127	items available	-0.035522204
-1.3458816	relations section	-0.035522204
-1.5201643	company's website	-0.035522204
-1.3450518	relations website	-0.035522204
-2.2678986	at httpircallawaygolfcom	-0.035522204
-1.6845665	afternoon most	-0.035522204
-2.925993	and most	-0.035522204
-2.6630182	our most	-0.035522204
-0.74387765	httpircallawaygolfcom most	-0.035522204
-1.868565	into most	-0.035522204
-0.74387765	ask most	-0.035522204
-2.7132542	our numbers	-0.035522204
-1.4401917	financial numbers	-0.035522204
-1.8136557	revenue numbers	-0.035522204
-2.0459611	those numbers	-0.035522204
-1.9975513	you reported	-0.035522204
-1.3431476	numbers reported	-0.035522204
-1.0444344	foundation reported	-0.035522204
-1.9580374	guys reported	-0.035522204
-3.0383668	and discussed	-0.035522204
-2.5348165	as discussed	-0.035522204
-1.5194428	we've discussed	-0.035522204
-2.3478844	this based	-0.035522204
-1.9847953	are based	-0.16725639
-1.0430597	regions based	-0.035522204
-2.109752	guidance based	-0.035522204
-1.5128665	consumer based	-0.035522204
-1.0430597	inflection based	-0.035522204
-2.3258438	the us	-0.035522178
-2.7556531	of us	-0.035522204
-1.0396417	joining us	-0.035522204
-2.0011082	on us	-0.035522204
-2.5581615	our us	-0.035522204
-2.8450673	in us	-0.035522204
-2.2962763	have us	-0.035522204
-1.3620762	for us	-0.035522178
-0.55953735	gives us	-0.035522204
-1.0396417	help us	-0.035522204
-0.7421581	walking us	-0.035522204
-2.677795	is generally	-0.035522204
-2.1419582	us generally	-0.035522204
-2.2713397	which generally	-0.035522204
-1.22142	generally accepted	-0.035522204
-1.3458816	accounting principles	-0.035522204
-1.3609321	is in	-0.035522204
-1.7847594	and in	-0.035522204
-1.5602306	be in	-0.035522204
-1.2362311	conference in	-0.035522204
-1.7054237	at in	-0.035522204
-1.640656	this in	-0.035522204
-1.4415596	time in	-0.035522204
-1.3979895	would in	-0.035522204
-1.6354538	to in	-0.035522204
-1.6854461	golf in	-0.035522204
-1.4117543	earnings in	-0.035522204
-1.8053448	of in	-0.035522204
-1.6238717	are in	-0.035522204
-1.2155939	brian in	-0.035522204
-1.4672319	results in	-0.035522204
-1.2957768	presentation in	-0.035522204
-1.1558363	numbers in	-0.035522204
-1.0715281	discussed in	-0.035522204
-1.5333308	us in	-0.035522204
-0.6892277	principles in	-0.035522204
-1.8212804	in in	-0.035522204
-1.8549773	we in	-0.035522204
-1.6096963	have in	-0.035522204
-1.3242068	back in	-0.035522204
-1.4634421	that in	-0.035522204
-0.6892277	contained in	-0.035522204
-1.3249688	there in	-0.035522204
-1.5127469	it in	-0.035522204
-1.1120181	also in	-0.035522204
-1.7634401	as in	-0.035522204
-1.5510625	now in	-0.035522204
-1.1878481	over in	-0.035522204
-1.4742517	strong in	-0.035522204
-1.4824526	start in	-0.035522204
-1.6027248	year in	-0.035522204
-0.6499311	performance in	-0.1586624
-1.0703605	both in	-0.035522204
-1.2155939	goods in	-0.035522204
-1.4872656	were in	-0.035522204
-0.58127046	growth in	-0.10156876
-1.1904509	business in	-0.10585339
-0.8564982	increase in	-0.035522178
-1.484634	wolfskin in	-0.035522204
-0.6433879	brands in	-0.035522204
-1.384266	increased in	-0.035522204
-1.2537298	all in	-0.035522204
-1.2957768	segments in	-0.035522204
-1.3364524	negative in	-0.035522204
-1.3242068	headwinds in	-0.035522204
-1.2804643	we're in	-0.035522204
-0.6892277	required in	-0.035522204
-1.2155939	lot in	-0.035522204
-1.2605522	opportunity in	-0.035522204
-1.1558363	remains in	-0.035522204
-1.1558363	improve in	-0.035522204
-1.347682	slide in	-0.035522204
-1.0221634	market in	-0.11876795
-1.1558363	conditions in	-0.035522204
-1.6788367	but in	-0.035522204
-1.4213624	was in	-0.16725639
-1.4121609	flat in	-0.035522204
-1.4790595	so in	-0.035522204
-1.2795906	strength in	-0.035522204
-1.2957768	driver in	-0.035522204
-0.9397241	shares in	-0.16725639
-1.5456022	brand in	-0.035522204
-1.5993779	number in	-0.035522204
-1.2065454	one in	-0.035522204
-1.4465619	into in	-0.035522204
-1.0715281	spot in	-0.035522204
-0.6892277	mobility in	-0.035522204
-1.2362311	lead in	-0.035522204
-1.1558363	importantly in	-0.035522204
-0.47393632	here in	-0.11876795
-1.4465619	out in	-0.035522204
-1.3965625	europe in	-0.035522204
-1.0715281	growing in	-0.035522204
-1.2155939	potential in	-0.035522204
-1.0715281	plant in	-0.035522204
-1.2605522	distribution in	-0.035522204
-1.1558363	projections in	-0.035522204
-1.1558363	less in	-0.035522204
-1.2155939	healthy in	-0.035522204
-1.3313348	position in	-0.035522204
-1.0715281	positions in	-0.035522204
-1.5665905	it's in	-0.035522204
-0.9402646	successful in	-0.035522204
-0.6433879	investments in	-0.035522204
-0.6892277	initiatives in	-0.035522204
-1.0715281	addition in	-0.035522204
-0.6892277	reinvestments in	-0.035522204
-1.0767367	sales in	-0.11876795
-1.3313348	should in	-0.035522204
-0.53053504	keep in	-0.16725639
-1.0715281	factors in	-0.035522204
-0.6892277	occurred in	-0.035522204
-0.53053504	included in	-0.035522204
-1.2362311	transaction in	-0.035522204
-1.3791491	expenses in	-0.035522204
-1.2605522	adjustments in	-0.035522204
-1.5121593	basis in	-0.035522204
-1.0453529	expense in	-0.035522204
-0.88926625	million in	-0.09968702
-0.15472998	changes in	-0.43076712
-1.2605522	rates in	-0.035522204
-1.4115288	margin in	-0.035522204
-1.3988206	point in	-0.035522204
-0.6406522	decrease in	-0.035522204
-1.3969942	products in	-0.035522204
-1.2362311	accretive in	-0.035522204
-1.2795906	period in	-0.035522204
-0.53053504	change in	-0.035522204
-0.9402646	losses in	-0.035522204
-1.2605522	interest in	-0.035522204
-0.9402646	availability in	-0.035522204
-1.0715281	outstanding in	-0.035522204
-1.298348	portion in	-0.035522204
-1.1558363	expenditures in	-0.035522204
-0.6892277	awards in	-0.035522204
-1.1783652	range in	-0.035522204
-1.1558363	estimates in	-0.035522204
-0.6892277	improvements in	-0.035522204
-0.6892277	shift in	-0.035522204
-0.6892277	increases in	-0.035522204
-0.6892277	recorded in	-0.035522204
-0.6892277	occur in	-0.035522204
-0.9402646	loss in	-0.035522204
-0.72853935	launches in	-0.16725639
-0.6892277	periods in	-0.035522204
-1.3242068	questions in	-0.035522204
-0.6892277	backdrop in	-0.035522204
-1.3406914	bit in	-0.035522204
-0.6892277	resulting in	-0.035522204
-0.9402646	weakness in	-0.035522204
-1.381956	still in	-0.035522204
-1.1783652	early in	-0.035522204
-0.6892277	shipments in	-0.035522204
-0.53053504	came in	-0.035522204
-1.539712	think in	-0.035522204
-1.1558363	channel in	-0.035522204
-1.0715281	putting in	-0.035522204
-1.4115288	guess in	-0.035522204
-1.4745746	down in	-0.035522204
-1.2155939	expecting in	-0.035522204
-0.9402646	improvement in	-0.035522204
-0.508276	momentum in	-0.035522204
-1.0715281	profitable in	-0.035522204
-1.2155939	perspective in	-0.035522204
-0.72853935	said in	-0.16725639
-0.6892277	disappointed in	-0.035522204
-1.1558363	come in	-0.035522204
-0.9402646	investing in	-0.035522204
-1.0715281	pressure in	-0.035522204
-1.0715281	coming in	-0.035522204
-0.9402646	else in	-0.035522204
-0.6892277	experienced in	-0.035522204
-1.1558363	go in	-0.035522204
-1.0715281	indiscernible in	-0.035522204
-0.9402646	frankly in	-0.035522204
-1.0715281	making in	-0.035522204
-0.6892277	penalty in	-0.035522204
-0.6892277	feeling in	-0.035522204
-0.6892277	hedged in	-0.035522204
-1.0715281	plans in	-0.035522204
-0.6892277	dialing in	-0.035522204
-0.9402646	place in	-0.035522204
-1.0715281	ai in	-0.035522204
-0.6892277	technologies in	-0.035522204
-0.9402646	retailers in	-0.035522204
-0.6892277	leaned in	-0.035522204
-0.6892277	lean in	-0.035522204
-0.6892277	energy in	-0.035522204
-0.6892277	poor in	-0.035522204
-0.6892277	possible in	-0.035522204
-0.6892277	calling in	-0.035522204
-3.1600492	the few	-0.035522204
-2.1338885	a few	-0.035522204
-1.6948158	next few	-0.035522204
-1.3458816	few instances	-0.035522204
-2.2074277	be where	-0.035522204
-2.1445303	quarter where	-0.035522204
-2.5623927	on where	-0.035522204
-2.0841515	us where	-0.035522204
-0.7421581	instances where	-0.035522204
-1.4271134	markets where	-0.035522204
-1.4271134	result where	-0.035522204
-1.6210114	versus where	-0.035522204
-1.8153453	guess where	-0.035522204
-1.2122154	pressure where	-0.035522204
-0.7421581	wondering where	-0.035522204
-1.2505493	and we	-0.06509938
-0.44496667	today we	-0.035522204
-1.7967321	like we	-0.035522204
-2.0036116	to we	-0.035522204
-1.4637051	company we	-0.035522204
-2.100049	of we	-0.035522204
-1.7733271	quarter we	-0.035522204
-1.6979654	are we	-0.035522204
-1.5344056	chip we	-0.035522204
-1.6467998	results we	-0.035522204
-1.7543027	us we	-0.035522204
-1.9382843	in we	-0.11876795
-1.5888696	where we	-0.035522204
-1.1439217	measures we	-0.035522204
-1.1263094	that we	-0.21093813
-1.436267	expectations we	-0.035522204
-1.1282345	as we	-0.035522204
-1.8671243	year we	-0.035522204
-1.1085043	performance we	-0.035522204
-0.89071023	businesses we	-0.035522204
-1.3537313	growth we	-0.035522204
-1.7002183	business we	-0.035522204
-1.5067573	acquisition we	-0.035522204
-1.3510077	all we	-0.035522204
-1.4249741	segments we	-0.035522204
-1.4637051	headwinds we	-0.035522204
-0.8486035	believe we	-0.09641348
-1.1724479	guidance we	-0.035522204
-1.4964147	slide we	-0.035522204
-1.7378566	market we	-0.035522204
-1.4208431	but we	-0.035522204
-0.71779794	usual we	-0.035522204
-1.7084255	than we	-0.035522204
-1.3064637	which we	-0.035522204
-1.258543	timing we	-0.035522204
-1.0472261	so we	-0.10585339
-0.99258107	date we	-0.035522204
-0.99258107	tour we	-0.035522204
-0.71779794	initiative we	-0.035522204
-1.2454447	importantly we	-0.035522204
-1.6726251	here we	-0.035522204
-1.5442727	europe we	-0.035522204
-1.1439217	season we	-0.035522204
-1.1439217	infrastructure we	-0.035522204
-0.71779794	ambitions we	-0.035522204
-1.3201371	currently we	-0.035522204
-1.5344056	industry we	-0.035522204
-1.4475298	position we	-0.035522204
-1.3201371	learning we	-0.035522204
-1.0583843	what we	-0.035522204
-0.71779794	accordingly we	-0.035522204
-0.71779794	although we	-0.035522204
-0.66194856	should we	-0.11876795
-1.3325727	transaction we	-0.035522204
-1.1293552	when we	-0.035522204
-1.0944415	how we	-0.11876795
-1.2358621	basis we	-0.16725639
-1.635352	then we	-0.035522204
-0.99258107	size we	-0.035522204
-1.3201371	asia we	-0.035522204
-1.4805164	million we	-0.11876795
-1.5893017	margin we	-0.035522204
-1.5703044	point we	-0.035522204
-1.2454447	impact we	-0.035522204
-0.71779794	considered we	-0.035522204
-1.2454447	saw we	-0.035522204
-1.7658429	think we	-0.035522204
-1.3781823	weather we	-0.035522204
-1.2007966	yes we	-0.035522204
-1.3201371	perspective we	-0.035522204
-0.99258107	data we	-0.035522204
-1.1439217	mean we	-0.035522204
-0.99258107	months we	-0.035522204
-1.1439217	areas we	-0.035522204
-0.99258107	clearly we	-0.035522204
-1.1439217	percent we	-0.035522204
-1.1439217	susan we	-0.035522204
-1.2454447	consumers we	-0.035522204
-1.2454447	marketing we	-0.035522204
-0.99258107	space we	-0.035522204
-0.71779794	yet we	-0.035522204
-0.71779794	somewhere we	-0.035522204
-1.1577573	debt we	-0.035522204
-0.71779794	hope we	-0.035522204
-2.859017	we report	-0.035522204
-1.9141113	they report	-0.035522204
-2.3724387	and non	-0.035522204
-2.660206	to non	-0.035522204
-1.9053218	the non	-0.19812225
-1.651165	our non	-0.33385712
-2.825063	in non	-0.035522204
-1.0389614	report non	-0.035522204
-2.216492	some non	-0.035522204
